#pragma once
#define NN_data float
static NN_data layer_0[1][1][9] = {{{0.1663789, 0.7673139, 0.3473375, -0.87433714, -0.1399026, 0.3101826, -0.5224276, 0.11511389, -0.1850182}}};

static NN_data layer_1[1][1][9] = {{{0.04418954, 0.19565548, 0.34412396, -0.33796346, 0.89939195, 0.67806584, -0.36623338, 1.2161982, -0.42681277}}};

static NN_data layer_2[1][1][9] = {{{0.023860348, 0.6853145, 0.52997005, -0.041421324, 1.411752, 0.21353872, 0.013435913, 0.64906096, 0.034374226}}};

static  NN_data layer7_weights[] = {0.2775143, 0.50008225, -0.7983463, -0.22000359, 0.06994822, -0.045160174, -0.8624813, -0.34592462, -0.4210891, -0.39157256, 0.09197135, -0.17789921, -1.0727905, -0.08318324, 0.18516254, 0.02390021, 0.5549079, -0.26705033, -0.6504739, -0.2197449, 0.28117302, 0.32409856, 0.08626634, -0.14226949, -0.24604586, 0.12244158, 0.0981877, -0.50961554, 0.46997133, 0.503964, -0.18021286, 0.04270262, 0.5438435, 0.3596129, -0.014939634, -0.23535165, -0.114744395, 0.028898632, 0.002789411, 0.012223413, 0.02707125, -0.18811932, 0.028508965, 0.07186148, -0.05705753, -0.03476655, 0.124498315, -0.53002423, 0.06294642, 0.048295494, 0.40314877, -0.8729183, 0.08862865, -0.016369438, 0.06681717, 0.56740874, 0.2454571, -0.38807526, -0.12835324, 0.69941765, 0.22084549, -0.38716978, -0.15127559, 0.13684954, 0.14333415, 0.8354624, -0.8052742, 0.03243872, 0.10916191, 0.06175046, -0.12011318, -0.62467945, -0.5005572, 0.11134628, -0.011184669, 0.6140989, -0.419705, 0.22194223, 0.18963501, -0.1345717, 0.35807702, -0.39282423, -0.16210923, -0.08225141, -0.051157553, -0.34563747, -0.37067407, 0.6461355, 0.16356324, 0.15021147, -0.19344461, -0.03923943, -0.23432145, 0.029709313, 0.100222655, 0.08117786, 0.6496444, -0.03353386, -0.059479367, 0.09558885, -0.21028256, 0.23336866, 0.27946988, -0.15301365, 0.1395634, -0.4372595, 0.4929175, -0.12602355, -0.03464437, 0.014775538, -0.25221607, -0.62721944, 0.17835957, 0.010214941, -0.05053844, 0.25887385, 0.13680252, 0.17095056, -0.105833665, 0.04493985, 0.04667128, -0.09666239, -0.12621863, -0.063718766, 0.12158434, -0.1258052, -0.4378277, 0.44235417, 0.34443423, 0.06431458, 0.40458438, -0.21107107, -0.38947567, -0.27217847, 0.03623074, 0.5291697, -0.19521162, -0.55037504, 0.0020973193, 0.2473102, -0.41757002, -0.5083295, -0.87477547, -0.70837617, -0.05703068, -0.2391187, 0.16704917, 0.4646245, -0.030443296, -0.091061845, 0.21283557, 0.41783056, -0.63161093, -1.195812, 0.15473247, 0.34037694, -0.36919492, -0.21090885, 0.053226054, 0.06640644, 0.51093906, 0.24235773, -0.21218051, -0.2693479, -0.0075764293, -0.027536836, 0.1627398, -0.6849411, 0.08759019, 0.05467764, -0.030570125, 0.17486362, 0.048208103, 0.015560559, -0.019160507, 0.41598982, -0.4659404, -1.9654621, 0.052612845, -0.051809482, 0.09356856, -0.105391204, -0.49487692, -0.60667324, 0.06567949, 0.1303709, -0.07224076, -0.4178087, 0.76870143, -0.060676523, -0.026759002, -0.06542163, -0.17448126, 0.19035412, 0.6452665, -0.18218918, 0.062587924, 0.24245812, -0.09144037, -0.30058813, 0.42835164, -0.18815224, -1.0061326, -0.12861526, -0.08179878, 0.20837665, -0.4483537, 0.23180988, 0.19973004, 0.1296521, 0.0104872035, 0.0715088, 0.21760881, -1.2107532, -0.28733343, 0.09078174, -0.048997335, -0.49031046, -0.13737789, 0.19416241, 0.06095652, 0.29587138, -0.18602237, -0.019454123, 0.6926391, 0.4969866, 0.24371563, 0.4386612, -0.45350993, -0.1764745, 0.09318779, 0.27304754, -0.33415887, -1.1331769, -0.38004327, 0.0766565, 0.40329507, -0.07139508, -0.38492128, -0.028694633, 0.094624005, 0.3857023, 0.10725661, -0.3666463, -0.0014022596, 0.42167988, 0.23482151, -0.43332073, -0.10352604, -0.0062471204, -0.28083184, 0.21114142, -0.24969618, 0.06495364, 0.18697801, 0.472974, 0.15995616, -1.1493711, -0.53047866, -0.0039627636, 0.1458907, -0.13429157, -1.5643544, -0.24893716, -0.05777034, 0.50004584, 0.38225704, -0.37694046, -0.23492526, 0.26577774, 0.6029915, -0.40281767, -0.12328168, -0.062102817, -0.04443555, -0.23404421, -0.19560643, 0.1895277, 0.065367535, 0.0924646, 0.07292016, 0.040808108, -0.9234202, -0.37511542, 0.14237018, 0.38496715, -0.055391002, -0.5437407, 0.122070186, 0.02282058, 0.1562546, -0.09543246, 0.168747, 0.17200561, -0.2170028, 0.48870757, 0.8903901, 0.4200908, 0.3021581, 0.19160318, 0.3812093, -0.1078618, -0.23766018, -0.012462155, 0.08392295, -0.022483017, 0.01576969, -0.9124675, 0.036954504, -0.013256339, -0.17792934, -0.22472712, 0.76170397, -0.013297112, 0.4428409, -0.30380222, -0.23205855, -0.0038314825, 0.2815606, -0.1134888};

static  NN_data layer8_weights[] = {-0.44758895, -0.3172094, -0.19576503, 0.011436587, -0.71497864, -0.6392299, -0.05905326, 0.700805, -0.056481134, 0.028257584, -0.27989784, 0.700378, 0.09426683, 0.22118507, -1.6879556, 0.27350634, 0.5299478, 1.880327, 0.821564, 0.6863528, 0.1436436, 0.92826486, 0.09372279, -0.12969154, -0.17783768, 1.1570218, 0.015942372, 0.20289482, 1.0445888, 0.13525341, -0.45929596, -1.1204939, 0.8514165, 0.63466173, -0.30117247, 0.24648744, 0.73249704, -0.373338, 0.17840327, -0.30675185, 0.5544425, -0.049764372, 0.17483197, 0.29625458, 0.07653495, 0.0072864527, -0.30004036, -0.4817737, -0.24304034, -1.3954171, -0.26309782, -0.118788406, -0.07623536, -1.5234296, -0.36234614, -1.5539861, -0.4148923, 0.06126321, -0.054183163, 0.38710988, -0.2788512, -0.3206064, 0.67808956, 0.09662365, -1.187191, -1.1847731, -0.27158684, -0.2543976, -0.45594132, -0.056808602, -0.57801676, -0.16197644, -0.7194531, 0.03929834, 0.5974829, 0.9906131, 0.3505027, 0.32960442, -0.30986267, 0.30581537, 0.13385557, 0.4432047, 0.32371977, 0.514235, -0.03562991, 0.6685876, -0.52148783, 1.4855278, 0.32281378, -0.8624824, -0.19751383, 1.0948588, 0.48501894, -0.06088676, -0.8550282, -0.38842905, 0.7297062, 1.189014, 0.37394112, 0.77734655, -0.5885199, 0.5156103, 0.36308903, 0.37945294, 0.27811843, -0.13327324, -0.4992783, -0.05461977, -0.7399755, -0.039530866, 0.32352126, 0.90874076, -0.47480285, 0.78833926, -1.0311408, 0.70407724, 0.38753554, 0.23068798, -0.7166753, 1.6988859, -0.14963381, 1.5376694, 1.0853039, 0.115331285, 0.5230441, -0.08161736, -0.22902034, 0.76561946, 0.087507255, 0.40801588, 0.15009905, 0.49424067, 0.55708563, 0.2437716, -0.09107024, 0.20056881, -0.44529217, -0.038647383, 0.08630759, -0.29783556, -0.021668227, -0.08335578, 0.7726765, 0.4077274, -1.0315927, 0.24784644, -0.5729815, -0.32354802, 0.3037609, 0.13145225, -0.3191051, 1.5076656, 0.8135395, 0.442916, 1.000937, 0.32050094, 0.5808631, -0.1543332, 0.31351733, 0.4524892, -0.35528222, 0.7812011, -0.07110619, 0.29918382, 0.32417434, 0.04328323, -0.09753202, 0.68155485, 0.1498981, 0.039502043, 0.3480384, 0.44092876, -0.48144865, -1.4914455, 0.41523293, 0.90162367, -0.84201974, 0.73082554, -0.16659406, 0.6492724, 0.10149207, 0.4739745, -0.26162764, 1.5643554, 0.018165484, 1.0624783, -0.60246396, 0.19762379, -0.18386362, -0.25820607, -0.29144257, -0.31127053, 0.6941428, 0.32479054, -0.12461669, -0.55576056, 1.105038, 0.021959255, -0.032720365, 0.8539604, -1.0689044, 0.21030116, 0.21570946, 0.92846924, -0.03864432, -0.40511557, 0.033096295, -0.08788243, -1.0582175, 1.4484037, 0.4579054, 0.33620796, 0.5246397, 0.13794439, 0.1937006, 0.2796596, 0.5413371, -0.0800937, 0.031360142, 0.70664924, 0.0546318, 0.35125363, -0.35594493, -0.9912329, 1.3483169, 0.9326274, -0.652226, 0.45922324, -0.31126833, -0.021717964, -0.011658787, 0.39520514, 0.4157329, -0.24370375, 0.26241413, 0.47541967, 0.42097017, -1.1473192, 0.2335316, 0.9439354, -0.26637074, -0.09114017, -3.269813, -0.6940704, -0.43855974, 0.78103954, 0.09186684, -0.11680295, 0.22035229, 1.2092763, 1.2567866, -0.94464236, 0.6533937, -0.41045243, 0.009100605, 0.20377168, -0.4165397, 0.38707748, 0.36249894, 0.36872408, -0.019878065, -0.17177519, 0.18363154, 0.062130023, -0.09593958, 0.0047860923, -0.10411688, 0.71160376, 0.58026826, -0.2578837, -0.41713512, 0.22264832, -0.85349673, 1.4733872, 0.07702789, 0.44583955, 0.18392956, -0.32894343, -0.21114619, -0.3604963, -0.14840469, 0.29920146, -0.32403588, 0.8508436, 0.38382348, 0.020416992, -0.094989344, -0.39519462, 0.477283, 0.3961969, 0.34562117, 0.32241455, 0.28685695, -0.063967004, 0.22556587, 0.39150715, -0.32021707, 0.32361063, -0.01149954, 0.2515542, -0.06370998, -0.58773226, 0.34203222, 0.49271172, -0.4024685, 0.6616202, -0.9416709, -0.2421604, 0.35781187, 0.13211676, -0.1753228, 0.76942235, 0.5032393, 0.69329625, 0.49602777, 0.53749675, 0.58334893, -0.21824758, 0.25089937, 0.24521391, -0.13759446, -0.09997602, -0.17744467, 0.16476487, -0.70108724, 0.09922701, 0.011790764, -0.041521423, -0.23442358, 0.035741795, -0.17271541, -0.48900482, -0.016620927, -0.100021996, 1.0486896, 0.7035799, -0.95643187, 0.029554686, 0.12243922, 0.33172238, 0.20491466, -0.06475028, 0.4323634, -0.3622055, -0.3094954, -0.2468223, 0.32240728, -0.15660466, 0.24663465, -0.24659093, -1.1176871, -0.2987303, -0.012390852, 0.2761335, -0.04636634, 0.11519639, 0.042729855, 0.19623756, -0.26745558, 0.381452, -0.5594487, 0.20004791, 0.13822237, 0.18980266, 0.18347101, -0.53939855, 0.014666712, 0.3107736, -1.2019856, 0.34909007, -0.45900446, -0.039494187, -0.19957773, 0.070876785, -0.19577447, 1.1866527, 0.37790585, 0.5336564, 0.5861962, 0.5552071, 0.44888997, 0.010932511, -0.5340075, 0.0611985, 0.28827116, 0.47588357, 0.39393717, 0.082388215, 0.7768946, 0.16957696, 0.009033028, 0.51461405, -1.1496156, 0.11207257, 0.01072496, 0.56343836, 0.17165583, -0.17126358, 0.68721664, 0.19998989, -0.7029317, 0.74959904, -0.073796436, 0.2614891, 0.09420656, 0.03966144, 0.123799704, 0.47604668, 0.26259798, 0.3835762, 0.15590505, 0.88065976, 0.5127672, 0.08480299, -0.38884622, -0.29282022, 0.27345642, 0.46997732, 0.38836777, 0.82692665, -0.30249923, -0.02559127, 0.09579116, 0.34011215, -0.23619801, 0.2574162, 0.52296156, -0.3382191, -0.11330556, -0.24530338, 0.36471015, 1.2828643, -0.17908625, 0.9814433, -1.2777593, 0.38165233, 0.22476844, 0.5360688, -0.10815354, 1.1718072, -0.026882347, 0.12857676, 0.22208886, 0.35212022, 0.06898316, -0.09128545, -0.19926675, 0.65282047, 0.82673496, 0.34558976, 0.12350018, 0.68962544, -0.08955237, 0.29566517, 0.22616985, 0.6953829, -0.24770653, -0.45404014, 0.4013707, -0.008100171, 0.2012917, -0.39309463, 0.78570837, 0.51116693, 0.07246818, 0.1739243, -0.6741837, -0.939384, 0.28786162, 0.7241386, 0.14120497, 1.2680272, 0.15764588, 0.5496139, 0.98551315, 0.2466095, 0.4395385, -0.56086403, 0.038113825, 0.8346673, 0.37849507, 0.64757943, 0.0954581, 1.2081124, -0.34393275, 0.16060182, 0.5184399, 0.69775295, 0.42744341, 0.008849077, -0.2226915, 0.048808653, -0.105922416, -0.07859156, 0.6486241, 0.30584398, 0.025866276, 0.66429484, -0.32821473, -0.64603645, 0.33878618, 0.7855974, -0.015785549, 0.12268722, 0.24483383, 0.5689003, 1.1757228, -0.24723116, 0.57394856, -0.47125947, 0.42927405, 0.36635184, -0.06772134, 0.06730955, 0.13724813, -0.20149954, 0.15066417, -0.4069139, 0.16991283, 0.4773371, -0.78704727, 0.390401, 0.34612545, 1.0314091, 0.46949902, -0.24751621, -0.5305935, 0.3348639, -0.5705798, 0.894646, 0.26294714, 0.5961645, 0.30449665, 0.1543198, 1.8230043e-05, -0.06848677, 0.03518673, 0.021984184, -0.24400784, 0.47596958, 0.22665657, 0.1453333, -0.3062585, -0.41775846, 0.7808975, 0.044553377, 0.012558619, 0.38851258, -0.33517465, -0.3463093, -0.16072272, 0.6042313, -0.59490436, -0.13591023, -0.04334018, -0.2862175, -0.68079036, 0.12384771, -0.12251171, -0.23971361, -0.0414136, 1.1366282, -0.55638057, 0.2222393, 0.005077331, 0.39509276, 0.22563908, -0.42225984, -0.19031715, 0.49774, 0.5854389, -0.53835475, -0.16736862, 0.16937546, 0.17399217, -0.40897098, -0.11609112, 0.59107554, 0.077878825, 0.56610805, 0.018131942, 0.09846692, 0.9395192, 0.86630106, 0.24768516, -0.15034394, -0.84596586, 0.0053829923, -0.22693488, -0.6680065, 0.9595591, 0.46676582, 0.16384503, 1.2771358, -0.11842988, -0.061976038, 0.61692727, 0.76600564, 0.06523299, 0.29261342, 0.10318297, 0.22477321, 0.8915176, 0.40790385, 0.26996136, -0.54092336, 0.4274671, 0.1379875, 0.54710406, 0.4080813, 0.10728254, 0.45113477, -0.23851766, 0.7924619, 0.54099005, 0.86910224, -0.14483239, 0.08332907, -0.9323237, 0.09644901, -0.32654294, -0.7029708, 0.1503163, 0.91677004, 0.066298276, 0.8360557, -0.8254664, -0.34227094, 0.36156887, 0.59273714, -0.05837366, 0.5732093, 0.3076025, 0.4903071, 0.95088875, 0.07571706, 0.23618363, -0.23357283, 0.44251326, 0.90731364, -0.054759808, -0.22553729, -0.2925367, 0.12012296, -0.36463532, -0.14437121, -0.07499611, 0.050813235, -0.20939255, -0.360964, -0.30193868, 0.19292112, 0.16231754, -0.30479202, -0.07456, -0.17381912, 0.30862874, -0.22780113, -0.16571134, 0.16396257, 0.056245506, -0.29688892, 0.12893428, -0.11640622, 0.1772556, 0.18866864, -0.32765815, -0.2813266, -0.22367063, -0.41674912, 0.0539614, -0.2914423, 0.18734874, 0.0886739, -0.0052350536, -0.20042767, 0.07104739, -0.07487087, 0.11012854, -0.1733592, 0.10334563, 0.08765872, 0.031598646, -0.060182124, -0.41039225, -0.11183009, -0.1992109, 0.14176717, 0.2268149, -0.052571192, 0.014559116, -0.21745835, -0.34431803, -0.13414316, 0.06345011, -0.29237548, -0.3877511, 0.1523788, -0.3294597, -0.19190341, -0.10202067, -0.26869607, -0.328892, 0.11000423, -0.34080917, 0.7667853, 0.14354858, 0.31567317, 0.3196546, 0.18995205, 0.21274489, -0.23911688, 0.63839483, 0.39850387, -0.3373761, 0.3203386, 0.532865, -0.0460687, -0.21199322, -0.023921471, -0.8972005, 0.9759106, -0.4818481, -0.13567893, -0.03313893, 0.22249861, -0.16934942, 0.3828645, 0.14194064, 0.87729335, 0.1395238, 0.42736253, 0.6006561, -0.13581352, 0.21892835, -0.37987077, 0.07022032, 0.6747057, 0.26348877, 0.1627136, 0.277721, -0.3117216, 0.16288997, -0.3194387, -0.365465, -0.05810816, -0.002343328, 0.89164054, 0.52937776, -0.36798283, -0.13039108, 0.12035245, -1.2632315, 0.708312, -0.21815874, 0.49702334, 0.4199901, -0.24023716, -0.0005550697, 0.23574378, 0.06023519, 0.43995383, 0.23378363, 0.8785654, 0.5017584, -0.15928088, 0.18473418, -0.14421725, -0.27621847, 0.70531005, 0.39655653, 0.19610384, 0.0049800617, -0.25237, 0.18877679, 0.1253097, -0.40407476, -0.13395774, 0.26641822, 0.10831428, -0.06279188, -0.25178716, 0.09888702, 0.45686507, -1.1239561, 0.7652737, -0.88929033, 0.14364108, 0.3005394, 0.042542055, -0.20290934, 1.0833551, -0.032931197, 0.6214521, 0.4488358, 0.36250687, 0.19558746, -0.0237992, 0.15478063, 0.26801738, 0.93489724, 1.0095809, -0.00045695002, 0.26154727, 0.93197083, 0.9389215, -1.2167643, -1.5109072, 0.029986301, -0.6330908, -0.14802378, 0.29213277, -1.2912443, -0.12373618, 1.3237092, -0.21615481, 0.58854467, -0.70783395, 0.41956532, -0.56532323, -1.3799244, -0.62198395, 0.5090122, 0.09174412, 0.35466442, -0.19015384, 0.7134478, -0.6063923, -0.39925197, 0.1554479, 0.580079, 0.6549566, -0.17351983, -0.04767463, -0.3159362, -0.025572399, -0.44238845, -0.03821372, -0.4719928, 0.0026308927, 0.09017686, -0.01411811, 0.08559745, -0.12033456, -0.31614074, -0.29332724, 0.10527762, -0.13603371, 0.24049011, 0.0508295, -0.29230252, 0.18731625, -0.28955424, 0.16385031, -0.11706929, 0.12933564, 0.019919384, -0.11513531, 0.08088815, 0.088684894, -0.071683034, -0.1478907, 0.019353442, 0.020056494, 0.14488854, 0.21963531, 0.42192557, 0.47254676, -0.11117143, -0.3354445, 0.0140171815, 0.09147198, -0.20773354, -0.096439146, 0.46568847, 0.3596124, 0.50065833, -0.025218837, -0.20912981, 0.71950495, -0.53185254, 1.2526065, -0.47010797, 0.5042592, 0.3866719, 0.46625513, -0.43972024, 0.16472077, -0.0451932, -0.01118516, -0.33383745, 0.40691972, 0.24049789, 0.116148606, -0.044524617, -0.20646438, 0.27302095, 0.79887956, -0.08423417, 0.54906034, 0.34610045, 0.32356808, 0.42954746, -0.215228, 0.5214693, 0.1090589, 0.21682195, 0.60725313, -0.05216705, -0.44422328, -0.73634857, 0.009052713, 0.097376645, 0.54353493, -0.622058, -0.032724917, -0.022560054, 0.43824545, -0.1109533, 0.81693816, 0.36605415, 0.6489936, 0.6948654, -0.124018885, 0.8579231, -0.6235146, 0.48436004, 0.47513276, -0.13484627, 0.4095943, 0.29971984, 0.24222024, 0.65820575, -0.34220657, 0.0152905425, -0.17864887, -0.03987024, 0.016681636, 0.013518761, 0.35518107, 0.39585152, -0.14296424, 0.004588145, 0.23796467, -1.7353817, 0.4578642, -0.4982993, 0.11553489, -0.005696672, -0.26562762, -0.13205378, 0.8495936, 0.37726855, 0.87999845, 0.69356585, 0.69902843, 1.0403873, -0.25029284, 0.67292494, 0.07462701, 0.18757708, 0.14638463, 0.05362205, 0.15454604, 0.3899102, -0.44383326, -0.3553488, -0.49723008, -0.53302926, -1.1947577, -0.019235298, -0.54433316, 0.16082975, 0.55767035, 0.6000356, 0.48448032, 0.1133053, -1.1087564, 0.22134446, -0.35668838, -0.34019446, 0.084602706, 0.29936394, -0.5672649, 0.33995137, -1.4739696, -0.36733857, -0.4396304, 0.18055868, 0.13645424, 0.4966985, 0.6799656, 0.048967935, 0.35713813, -0.23714195, 0.76228654, -0.16102198, -0.25892153, 0.014266706, -0.44509852, 0.3007805, 0.16757609, 0.5684431, 0.18586625, 0.24418078, -0.38985083, 0.36994782, 0.67949456, 0.08002453, 0.58443004, 0.24380292, -0.024321308, 0.45683962, 0.7687218, 0.21746564, 0.038588714, 0.07214102, 0.19002791, -0.17302753, -0.037587374, 0.7971884, -0.70844954, 0.42804873, 0.46714878};

static  NN_data layer9_weights[] = {-1.5116416, 1.2562017, -1.3257247, -1.0267051, 0.372584, -0.2124343, 0.4992035, 0.6182289, -0.25363895, 0.29902828, -1.58666, 0.24773122, 0.47718874, -0.06972301, 0.64168054, -0.13237144, 0.12385633, 0.600728, -0.38532454, 0.36527556, 0.25403252, -0.15128627, -0.30770037, -0.03157178, -0.053460702, -0.27936003, 0.30253044, -0.32919726, 0.21852519, -0.045844816, -0.7254379, 0.102038264, -0.32211584, -1.6143494, 1.1920574, -0.32436082, 0.34381422, 1.0962514, 0.6246731, -0.23954555, 0.56887996, 0.4125589, -0.4288085, 0.22154771, 0.31904382, 0.1775683, -0.18846063, 0.26421887, 0.50367236, -0.63381374, 0.6710736, -0.26521873, -0.08473525, -0.19503336, 0.6920186, 0.47487274, 0.5011998, 0.33697578, -0.26193538, 0.32955953, 0.45580998, 0.19150242, 0.058996186, 0.12840395, -0.31560647, -1.1624681, 1.1196429, -0.87187636, -0.20532347, 1.2050831, 0.61313933, -0.14154607, 0.64357066, 0.30212155, 0.1601895, 0.2704309, 0.3588944, 0.18205017, 0.09441898, -0.13139114, 0.4011279, -0.39753273, 0.19888808, 0.28863373, 0.3587949, -0.24670707, -0.08860997, 0.13088652, 0.19010964, 0.4014299, -0.2309979, 0.25093216, 0.07797975, 0.21490404, 0.2028145, 0.3163667, 0.99608886, -1.1894768, 0.041373823, 0.28197855, 0.29991537, -0.41596916, 0.13203432, 0.07841816, -0.103495464, 0.052623615, -0.3289998, 0.17107901, -0.008441429, -0.7099178, -0.1488023, -0.40225723, -0.11217516, -1.5645745, -1.1182665, -1.0627432, -0.36982366, 0.032764878, 0.4232779, 0.26991066, -0.0020994705, 0.8909402, 0.30690587, -0.39682266, 0.479394, 0.6160819, 0.9986621, -0.28182858, 0.2708712, -0.32442355, 0.21983062, -0.18475156, -0.2441843, -0.30383107, -0.025705297, -0.26750338, 0.12778053, -0.12503316, -0.007548541, -0.33750337, 0.2654756, -0.2550897, -0.26890805, -0.37716934, -0.21929571, -0.12422559, -0.037815005, 0.022360332, 0.18869668, -0.17041105, -0.36716607, -0.14747417, -0.05829756, -0.20493963, -0.21989083, -0.040074985, -0.09523201, -0.06892534, 0.07018781, -0.011774063, -1.647929, 0.9157837, -0.62760884, -2.206725, 0.3324277, -0.51658523, 0.0039758785, 1.3548747, 0.012478996, 0.5556782, -0.74606454, 0.45203274, 0.17346253, 0.62806153, 0.6877451, 0.81733435, 0.23904204, 0.78959644, 0.39896443, 0.70456225, 0.20293035, 0.16915216, -0.156636, 0.022838794, 0.5508685, -1.6899836, -0.060190745, 0.020410882, 0.30019677, 0.07378441, -1.29826, 0.7353018, -0.19047232, 0.27926657, -0.3951884, 0.031354703, 0.26241413, -0.08917363, -0.36385265, -0.20962724, -0.35457924, -0.12490907, -0.3698418, -0.054186042, -0.17734581, -0.07334796, 0.20417258, 0.19128586, -0.13189611, 0.23573698, -0.35684806, -0.18203859, 0.0912753, -0.22973318, 0.042984378, 0.015993645, -0.03730309, -0.41761196, 0.004989163, 0.2558948, 0.1749428, -0.08897455, -0.36915073, -0.12807481, -1.735215, -0.6713831, 0.904999, -1.9777638, 0.5345218, 0.63212365, 0.09152716, 0.23747306, -0.11788027, 0.2877806, -0.98090005, 0.3663835, 0.015317274, 0.22910775, 0.6754404, 0.5382417, -0.22192767, 0.28656954, 0.59407455, 0.59090894, -0.14885718, 0.0036567552, 0.42707145, 0.25712296, -0.019712904, -0.60264814, 0.10132216, 0.4816637, 0.44281313, 0.49674007, -0.82602835, 0.6499728};

static  NN_data layer10_weights[] = {1.3796617, 0.6233354, 0.5795168, -3.2211642, -0.07146242, 0.8277155, -0.35278443, 1.0488287, -1.6162217, 0.90243715, 0.76600397, 0.3918954, 0.69106925, -0.80260473, -0.63162583, 0.38019592};

static NN_data bias_layer7[] = {0.34199622, 0.44735777, 0.23173386, -0.0584851, 0.66220236, 0.0085676415, 0.090941966, 0.23741673, -0.5135917, 0.31851003, 0.6965686, 0.7204138, 0.41197836, -0.0918319, 0.2617697, 0.32429817, -0.7100943, 0.18228428, 0.051017784, -0.16890173, 0.42032605, 0.35999277, 0.12325096, 0.317056, 0.22591041, 0.1606907, 0.2582903, 0.3507592, 0.501292, -0.2858271, 0.45266804, 0.036700424};
static NN_data bias_layer8[] = {-0.12608345, 0.10079632, 0.47675946, -0.22252843, 0.32178625, 0.3057611, 0.6801849, 0.42803913, 0.5208181, 0.3508909, -0.018409967, 0.32298857, 0.41222054, 0.38727644, 0.38447413, 0.05523775, 0.5477389, -0.07555145, 0.19841549, -0.053838722, -0.0770382, -0.072969094, 0.459423, 0.5655181, 0.4343947, 0.0046513216, -0.054899603, 0.38557443, 0.61011845, 0.49928916, 0.33352265, 0.4311277};
static NN_data bias_layer9[] = {-0.072611935, 0.46332115, 0.46804628, 0.3295518, -0.025234971, 0.06060038, -0.048514396, 0.3026317};
static NN_data bias_layer10[] = {0.29802147, 0.43674707};
