#include "ap_int.h"
#include <cstdint>
#include "ap_fixed.h"
#define n_inputs 288
#define n_layer1 128
#define n_layer2 64
#define n_layer3 32
#define n_layer4 16
#define n_layer5 8
#define n_layer6 2
namespace weights{
const ap_fixed<32,24> layer1_weights[288][128] = {{0.11403192, -0.007612184, 0.1239421, 0.10883634, 0.07737744, 0.07308793, 0.10070564, -0.114927836, 0.04225996, -0.04640731, -0.03153322, 0.012822818, 0.044748332, 0.0035207944, -0.080756575, -0.11265637, 0.023070127, 0.09954841, -0.116778955, 0.09003337, -0.041017804, 0.099311754, -0.010820117, 0.07853316, -0.04280001, 0.12749109, -0.015276782, -0.07313357, 0.07154921, -0.08345992, -0.07273163, 0.0493028, 0.0066554844, -0.032071076, 0.033982046, -0.045338172, -0.047634564, -0.03272491, 0.050036132, 0.123255506, -0.091354795, -0.04620614, 0.13600434, 0.04407384, -0.039467953, 0.07411128, 0.08071378, 0.063331224, -0.019145845, -0.042006053, 0.0029055707, 0.07078022, -0.06472727, 0.036189906, -0.06096326, -0.112525545, 0.08589746, 0.10702549, -0.06349492, 0.028641045, 0.07187663, 0.045574453, -0.14094962, 0.12605068, -0.047756847, 0.07312535, 0.017136112, -0.029665487, 0.005957522, 0.03688905, 0.1014453, 0.0065702978, -0.04311566, -0.06296784, 0.0043537444, -0.001103684, -0.01941187, -0.009657811, -0.10740857, -0.09266241, -0.029414058, 0.12293325, 0.057265505, -0.0046950392, 0.10266954, 0.0491337, -0.1235615, -0.052633855, 0.040841952, -0.06423359, -0.046058144, 0.012166491, 0.08280009, -0.06744877, 0.052348897, -0.07438312, 0.10715083, -0.119323656, 0.024661392, -0.006894462, -0.066156685, -0.07448483, 0.13962658, 0.034443762, 0.043533728, -0.1190082, 0.015745819, 0.10664521, -0.100224204, -0.04662228, 0.033113167, 0.086670876, -0.10981021, 0.07367079, -0.06358351, -0.13262421, -0.0052016154, -0.034329392, -0.048816964, -0.09005285, 0.043287907, 0.02379417, -0.090388715, 0.046788342, -0.0417753, -0.07776691, -0.112366684, 0.13602889}, 
{0.075863585, 0.006836607, -0.08967262, -0.10383673, 0.122165084, -0.03915803, 0.051440537, -0.10434419, 0.034105327, 0.038374126, -0.005314297, 0.104268484, 0.09906989, 0.042899754, -0.06908929, 0.006243621, 0.08333665, -0.041370127, -0.06733481, 0.0034831755, 0.071533315, -0.021824896, 0.047960117, 0.10477148, -0.060166664, 0.043484088, -0.11493608, -0.07123947, -0.099283986, 0.046932288, 0.068882525, 0.12607118, 0.093733385, 0.076899044, 0.08220767, -0.049508378, 0.015617845, 0.049459215, -0.070505105, -0.108448304, -0.0055536553, 0.042172417, -0.0068059745, -0.09824161, 0.096884, -0.07972949, 0.07905164, 0.027923156, 0.0409536, 0.0028339103, -0.024114173, -0.039585955, 0.11197116, 0.058266632, 0.092923865, 0.073742, -0.1405482, -0.07528669, -0.074188404, -0.10675682, -0.01350319, -0.103130445, -0.0416094, -0.04404279, -0.112209305, 0.07898343, 0.022460014, 0.062434927, -0.059616588, -0.087033734, 0.055098224, 0.10191315, 0.10766139, 0.06112143, 0.050266534, -0.08378139, -0.05837854, -0.062436573, 0.16416955, -0.024446374, -0.07359154, -0.11451683, 0.02975589, -0.11128759, 0.04868646, -0.044714008, -0.00260808, -0.07493399, -0.07441668, -0.015427224, -0.04680213, -0.04939338, 0.020181442, -0.08109741, 0.066463366, 0.087555215, -0.10969253, -0.01337368, 0.08962266, 0.07543488, -0.060696572, 0.11558141, -0.076551884, -0.09681633, -0.02095697, -0.017675072, 0.11620407, -0.064778805, -0.059191525, -0.0020794093, 0.056955054, 0.09300847, 0.09120969, 0.024707584, -0.019746646, 0.010562585, -0.07818504, 0.03313966, 0.10136872, -0.017096719, -0.09557729, 0.070584044, -0.015026763, -0.06785968, -0.057527624, -0.09470747, -0.06089245, -0.042796534}, 
{0.041787207, 0.11641454, -0.054296322, -0.11794642, -0.033477455, -0.08088601, -0.019567952, -0.007111122, 0.052886106, -0.08148355, -0.023274172, -0.034597043, 0.012163324, -0.114828415, -0.04323186, -0.033390436, -0.033152513, 0.07800688, -0.057180133, -0.09497894, -0.07830141, 0.093430966, -0.012931772, -0.010964118, 0.0611263, -0.081818014, -0.05136042, -0.05113954, 0.09228765, -0.119250536, -0.043296605, -0.081684195, 0.104833275, -0.0065693366, 0.004968277, -0.0109200645, 0.08937635, 0.057123713, -0.05465086, -0.06531003, 0.021540225, -0.11822726, -0.028264256, -0.06274248, 0.09722556, -0.033906464, -0.01168865, 0.046377543, -0.07201884, -0.104558, 0.05496593, 0.011290446, -0.031398434, -0.009686551, 0.035247743, 0.038610592, -0.014650458, -0.09205571, 0.0915617, 0.08868323, -0.027704613, -0.08581532, 0.11832346, 0.01740302, -0.014451085, 0.0529552, -0.019515693, 0.03453757, -0.0018595388, 0.03868011, 0.023501799, -0.067760505, -0.10526736, 0.014662641, -0.057030223, -0.061584614, 0.0058516148, 0.017516414, -0.058480434, 0.0835564, -0.08981797, 0.05752014, -0.026466953, -0.1159758, -0.12879063, 0.009230387, -0.008918234, -0.060632534, 0.026018709, -0.004754819, 0.06294325, -0.03631255, 0.059936095, 0.0051319557, -0.069205254, 0.016107751, 0.0055346256, -0.040845297, -0.061198022, -0.061306372, -0.10420881, 0.04505256, 0.049792435, 0.06983006, -0.07981214, -0.09611797, -0.0737422, -0.0067318613, 0.022804428, 0.0043001426, 0.06953703, -0.11404006, -0.030195322, 0.108858936, 0.010812536, 0.03745526, 0.11508483, 0.013175577, 0.07062625, 0.06234571, -0.08400996, -0.038036622, -0.083501324, 0.11288607, -0.09131411, -0.013924139, 0.11662555, -0.092643395}, 
{-0.076976635, -0.016517522, 0.055567276, 0.029881835, -0.060328178, -0.07190797, -0.1167113, -0.0821099, -0.014242674, 0.037565432, -0.04822323, 0.07949751, 0.030918317, 0.02949731, 0.10115071, 0.09211268, 0.114537075, -0.066748224, 0.08575131, 0.113080315, 0.09472061, 0.10788091, 0.037211247, -0.04219137, 0.10762311, 0.07081614, 0.061012313, 0.06121646, 0.013928541, 0.05669235, -0.018492691, 0.021015722, 0.043614, 0.062725976, -0.00980393, -0.077289306, 0.12110937, -0.024998201, 0.10884796, -0.037630804, 0.045150116, -0.118408196, -0.06310936, 0.07691809, 0.028147236, -0.09711121, -0.06678383, -0.02439698, -0.089977525, 0.06120713, -0.05508758, -0.008131124, 0.11072897, -0.057652075, -0.01573202, 0.084589615, -0.08695364, -0.007635271, 0.056812536, 0.033781588, -0.052162994, -0.11286932, 0.03258994, -0.009240483, -0.10228185, 0.025534598, -0.09640926, 0.06831439, 0.11245107, 0.02858896, -0.071302496, -0.0013321295, -0.07965217, 0.04677823, -0.008629514, 0.047675032, 0.087626755, 0.037722588, -0.0012879061, 0.05157303, -0.06378649, 0.07133288, 0.054114237, -0.123774655, -0.08900081, -0.061653424, -0.010693067, -0.026509045, -0.015612163, 0.07084124, 0.0056967135, -0.0318623, 0.0049550305, 0.084493786, 0.08250123, 0.04589831, 0.0019233944, 0.08933839, -0.033260636, -0.094859436, 0.009118199, 0.018157855, -0.1128958, -0.04611102, -0.118958466, 0.030055955, 0.039018095, 0.011789755, 0.041508418, 0.048024494, 0.10862571, -0.026405834, 0.008353397, -0.017091433, 0.010295302, 0.0648871, 0.075430125, -0.032706067, -0.06477167, -0.002681101, -0.10603333, 0.022975218, 0.02529423, -0.100737065, 0.008319363, 0.011243321, -0.081174225, -0.042706702}, 
{0.0977525, 0.06885181, 0.04076016, -0.012191653, -0.10864514, -0.0043758303, -0.059587065, 0.077086724, 0.031253207, -0.023357185, 0.025800234, 0.0855766, -0.009338357, -0.080069, -0.09755591, -0.011446778, -0.08176184, -0.05966007, 0.119615786, -0.043956745, 0.01791291, -0.036390692, 0.016188022, -0.075653896, -0.01038484, -0.05391299, 0.09488392, -0.016924195, 0.085946456, -0.034038525, 0.014749214, -0.06347963, -0.024557218, -0.059898414, 0.06243347, -0.032599706, -0.0511855, -0.11106109, 0.10814348, 0.112173855, 0.10486552, 0.024685785, 0.01930939, -0.027409306, -0.08531457, -0.06787929, -0.058708455, 0.09517718, -0.10453685, 0.11945078, -0.05502695, 0.012576103, -0.057727218, -0.049184788, 0.11115748, -0.07024896, -0.04122305, 0.059909064, -0.03786001, -0.09819866, 0.017011635, -0.053527515, 0.1171724, 0.117684074, -0.064745314, 0.079655096, -0.008531675, -0.06670093, 0.042819425, 0.025548859, 0.021282794, -0.07623204, -0.053950775, 0.037498128, 0.03453998, 0.011819067, -0.00096548453, 0.10260168, 0.0042108023, -0.022147413, -0.03671468, 0.11085398, 0.08620613, -0.069275334, 0.06416987, -0.0026649013, 0.062779956, -0.06707656, 0.08150837, 0.033683375, -0.020404873, -0.09464591, -0.0091465525, 0.10813795, 0.11691059, 0.096613824, -0.0052385135, -0.058096107, 0.07642725, -0.0016525015, -0.09537578, 0.01348269, 0.0052249767, -0.12320342, -0.111617126, 0.016374156, -0.101586446, -0.035460312, -0.07954979, 0.06945252, -0.018283583, 0.03269805, 0.04918891, 0.08653036, -0.031239763, -0.064864434, 0.10684782, -0.057727113, -0.11469152, 0.021611275, -0.053787686, 0.093750164, -0.09844591, -0.052625295, -0.042361505, 0.065126106, -0.11572343, 0.08796931}, 
{-0.06071118, -0.096978664, -0.007188602, 0.11507037, 0.035398245, 0.050725445, 0.11194171, -0.07960647, 0.018933492, -0.07941042, 0.08130119, -0.10389339, 0.048624244, -0.07306056, 0.048747223, 0.011229638, -0.11761087, 0.020328728, -0.07802175, 0.071684174, 0.0908746, -0.03630162, -0.043379106, -0.066981204, 0.025845561, -0.024280243, -0.10153408, -0.07345092, 0.043699093, 0.0656311, 0.0078997165, -0.0408254, -0.007459134, 0.115347005, -0.06468388, -0.053518407, 0.046138957, -0.11701659, 0.07301225, 0.0798746, 0.09650381, -0.11912712, 0.044829547, 0.024493333, -0.0012967959, -0.08498872, 0.07794094, 0.10162285, -0.07870979, -0.0031030849, -0.002016145, -0.026438475, 0.066037, -0.08396252, -0.09782849, 0.11313322, -0.0013189405, 0.037922002, 0.045282453, 0.06120968, -0.07498699, -0.047243524, 0.028096778, 0.049478825, -0.046343055, -0.07073097, -0.114265434, -0.05245515, -0.042192314, -0.115485996, 0.118541546, 0.036585193, -0.07638589, -0.028044231, 0.0052955393, -0.1078829, -0.09435913, -0.04601883, 0.055832647, -0.017091908, 0.041235372, 0.05824583, -0.0770134, -0.09661857, 0.026387598, 0.04952602, 0.018475465, 0.075333335, -0.048535533, 0.010974452, -0.050796643, 0.056340404, 0.11906804, 0.0011691909, 0.040792406, -0.06743587, 0.072546236, -0.10043231, -0.0031151697, -0.02732782, -0.08428977, -0.0024813786, -0.011524494, -0.0388284, -0.033384614, 0.0019934103, -0.089054465, 0.08855029, -0.095829576, -0.13703918, -0.118781395, -0.03676436, 0.11445457, -0.087022334, 0.0015211627, -0.037062366, -0.046141624, -0.0754666, -0.10667622, -0.036681216, -0.048171457, 0.011391259, 0.096954644, -0.015253797, 0.057415128, 0.0064443927, -0.057337098, -0.060981408}, 
{-0.07744763, 0.064383276, 0.11714034, -0.0938342, 0.073073186, 0.1032927, 0.11745766, 0.023988929, 0.043547057, -0.0007859206, 0.08886023, -0.07857098, -0.04099909, 0.054818004, -0.025005944, 0.05175537, 0.09783116, -0.09159733, 0.077754304, 0.13510695, 0.03152967, 0.008754621, -0.08357793, 0.05765578, 0.03570024, -0.109888144, -0.079058096, -0.020643555, -0.08784973, 0.055178687, -0.09238851, 0.103729784, 0.013524264, -0.015707973, -0.052470945, -0.018396718, 0.06452356, -0.017778695, 0.04464261, 0.11476468, -0.06985829, -0.05703204, -0.06573288, 0.005089815, -0.088895924, 0.089227274, 0.11511922, 0.046640664, 0.014389798, -0.0812546, -0.010562863, 0.09017098, 0.04309204, 0.012230524, -0.067470916, -0.08562817, 0.023279905, 0.041490663, 0.10406762, -0.09742007, -0.08978024, -0.015658746, 0.081457175, 0.09835202, -0.018762643, 0.1104815, -0.0121718645, -0.110769205, 0.06360167, -0.105964765, 0.08817738, 0.1024024, -0.08100046, -0.10106625, -0.008987275, -0.06349338, -0.0067509385, 0.06178355, -0.09511419, 0.077801615, 0.04950379, 0.06294884, 0.041180268, 0.018715143, 0.008534982, -0.071873665, 0.10913151, -0.04684826, 0.095406964, -0.107962534, -0.08730388, -0.03866809, 0.04359723, 0.009691501, -0.082826614, 0.09420677, 0.08850067, 0.092070565, 0.025016353, 0.111986235, -0.07538317, 0.09174168, -0.04910533, 0.065995, -0.0114384, -0.04200594, -0.09489927, 0.07723739, 0.031656694, -0.050700314, -0.07347002, 0.04764971, -0.06828726, 0.107755385, 0.09044409, 0.025915341, -0.0020623878, 0.035806462, 0.055956773, 0.093117505, 0.009452487, 0.045820165, -0.019456938, 0.076955095, 0.045681328, 0.09950709, 0.0032118633, 0.02271923}, 
{0.05676439, -0.0119633805, 0.0460723, 0.10092242, -0.12300896, -0.016418621, -0.045365952, 0.05606955, 0.065772444, -0.07428435, 0.1617832, 0.0037029942, -0.050862215, 0.071999036, -0.052840654, -0.08282688, -0.04534027, -0.08769, 0.030962592, 0.022830343, 0.054893393, -0.060677916, 0.089674436, -0.08292629, 0.091427706, 0.03189491, -0.00020676106, 0.06995252, 0.094119325, -0.10308078, -0.05523918, 0.060889084, 0.11052288, 0.1356872, -0.029364455, 0.024655992, -0.048326932, -0.027738225, -0.011995194, -0.030472653, -0.021572955, 0.1110542, -0.0016102728, -0.0007581958, -0.08082496, 0.0067691277, 0.08073099, 0.085021146, -0.03690608, -0.027141385, 0.091349095, -0.021267585, 0.060380004, 0.09364086, 0.07677543, 0.11861561, -0.10943934, -0.053309433, 0.07566445, -0.060960855, -0.041661136, 0.032287546, -0.059442304, -0.025498891, 0.0810706, 0.027188241, -0.071903035, -0.05633168, -0.04452057, 0.03325664, 0.030953193, 0.016209405, -0.122701, 0.07453157, 0.009577622, -0.05881555, -0.04962125, 0.05537985, -0.113297544, -0.048089884, -0.11875672, 0.06456888, 0.09988148, 0.044034068, -0.08143039, 0.018066466, 0.07380144, -0.025867367, -0.05637417, -0.022799313, 0.084262654, -0.07230402, 0.09448888, -0.07198366, -0.08269865, 0.012034474, -0.035794184, 0.019633144, -0.082147665, 0.054678977, -0.015057825, -4.8592687e-05, 0.017628165, 0.10746346, -0.044797756, -0.02499628, -0.023340821, -0.05709979, 0.06434126, -0.04500456, -0.09907486, -0.016096525, -0.055565044, 0.026177287, 0.04841751, 0.055898525, 0.062792465, -0.0678774, 0.085007735, 8.077947e-05, -0.07712515, 0.09175636, -0.09970671, -0.100535475, -0.008547738, 0.15030955, 0.011784196, -0.04022815}, 
{0.07842062, 0.062473133, 0.010968569, -0.04423532, 0.0025835012, 0.029921576, -0.099069394, 0.04813076, 0.12740178, -0.020493587, -0.0035486643, 0.01904757, -0.07975737, 0.106686085, -0.062356494, 0.05437941, 0.027874246, 0.05910031, -0.13309562, 0.0937325, -0.111540675, 0.008218425, -0.105220556, 0.09848225, -0.12203106, -0.009274723, 0.07537839, 0.048171, -0.11269254, 0.11019717, 0.10232808, 0.11475952, 0.017189398, 0.02709432, 0.04400889, -0.11072119, 0.0006461188, 0.039919667, -0.051027507, -0.08677273, -0.07335144, 0.0399234, 0.029268933, -0.016141478, -0.012789108, 0.011871137, -0.10547864, 0.12906854, -0.09925898, 0.044094324, -0.09469415, -0.07772879, -0.022701614, 0.07666756, -0.117374964, -0.09300415, 0.048682373, 0.14530987, -0.04692667, 0.020459905, 0.04941844, -0.024365649, 0.0541678, 0.113984995, 0.035800464, 0.08711043, -0.08381529, -0.042655583, -0.07559839, 0.058274023, -0.07752074, 0.07612874, 0.040074453, -0.041268792, 0.07420686, -0.047766726, 0.016130308, -0.07940532, 0.09190175, 0.057247467, 0.040393874, 0.10395322, 0.06553464, 0.00418576, 0.072759196, 0.031708434, 0.12948124, 0.09204855, 0.055444017, 0.038384646, -0.03585819, -0.019259812, 0.12704119, -0.009360723, 0.11438587, 0.07618307, -0.07792681, 0.038210824, -0.007756546, 0.051179662, 0.0023604333, 0.0591062, -0.022283113, -0.06790074, -0.036120452, 0.0076771826, 0.027463108, -0.06458128, -0.06908866, -0.12193179, -0.013248444, -0.119231395, -0.12090618, 0.12290631, 0.05738415, -0.1391605, 0.05072646, 0.03597489, 0.03075646, 0.06608003, 0.0042514354, -0.05657926, 0.019170985, -0.07454243, 0.08375117, 0.030147953, -0.014513537, -0.021787489}, 
{-0.10807212, 0.11025661, 0.015272859, -0.054120883, 0.10090766, -0.06136046, -0.044480875, 0.111751996, -0.056742918, 0.10440936, 0.004213321, 0.0016724955, 0.11094903, -0.07629269, 0.08658117, -0.064751536, 0.11884138, -0.08965247, -0.074548095, 0.08768477, 0.039321482, 0.0073669595, 0.016904328, -0.0403762, -0.11914783, -0.032756038, -0.1109992, 0.10196386, -0.011713069, 0.048756946, 0.046972618, -0.05833075, -0.030422486, -0.08374902, 0.061227847, -0.06186352, -0.097714946, 0.104151905, 0.07401621, 0.036524333, 0.047680542, -0.0701372, -0.070504665, -0.1183175, 0.016797036, 0.09463126, -0.083873466, -0.028839428, -0.0001364972, -0.02288501, -0.03857129, 0.013997629, 0.07378105, 0.004132953, -0.021393657, -0.029162772, 0.059015024, -0.0076330286, -0.072840914, -0.09951252, -0.023834188, -0.024000261, -0.037021328, -0.023462318, -0.05558693, -0.11414515, 0.08042799, 0.011429653, 0.081656426, -0.10105095, -0.05090235, 0.07870463, 0.11262829, 0.022617951, -0.0027313496, 0.08708558, -0.025069721, -0.06636342, -0.0026525732, -0.09489761, 0.10007946, -0.035781533, 0.09688454, -0.12534863, 0.033160847, -0.020386623, 0.09465137, -0.07501911, -0.06999, -0.077242374, 0.08538358, 0.021117179, 0.058477126, 0.018794486, 0.005151823, 0.07931103, -0.015451857, 0.0240677, -0.009344481, -0.031361915, -0.01316566, 0.09876184, 0.10758091, -0.045534655, -0.06931463, 0.081181034, 0.10454929, -0.012520335, -0.020707192, 0.07404137, 0.08959404, -0.09485938, 0.109547704, -0.11291043, 0.061771825, 0.06265045, -0.0390646, 0.006521836, -0.061480146, -0.053124625, -0.0373328, 0.03360849, -0.10089771, 0.09476737, -0.078960195, 0.10617963, -0.079936236, 0.07121102}, 
{-0.08479135, -0.023705207, 0.06443259, 0.11338365, 0.039038546, -0.015356272, -0.05937578, -0.10880728, -0.07097313, -0.068396635, 0.009657483, 0.09901566, 0.101622246, 0.044633504, 0.076806255, -0.036047008, -0.067407005, -0.057389572, 0.046506763, 0.10677809, -0.026199197, -0.121710144, -0.116685115, -0.050938398, 0.077013426, 0.065813966, -0.10333141, -0.0018531382, -0.11046142, 0.030340463, 0.11364353, 0.14400566, -0.014156997, 0.02894954, -0.0011552112, 0.0840724, 0.07172149, -0.041758806, -0.032825027, -0.06459722, 0.061637998, 0.06115739, -0.012967458, -0.021550221, 0.08047193, 0.07672452, -0.031570934, 0.08657938, -0.044886846, -0.09482622, 0.07497251, -0.039423086, -0.056200385, 0.03011035, -0.10068399, -0.07639999, 0.047455586, 0.11686615, -0.06502642, -0.04617066, -0.0011220349, -0.008740939, 0.027515255, -0.0374594, -0.025611859, -0.096085995, -0.06675013, -0.12062452, 0.04112614, 0.103566654, -0.0077239233, 0.06654797, -0.10189105, 0.0056421338, 0.0058908034, -0.022114825, 0.09860111, 0.07619317, 0.08486559, 0.052913077, 0.08486736, 0.067340694, 0.097834945, -0.01719167, 0.09920911, 0.11256858, 0.08900339, -0.11308327, -0.116789535, -0.06336859, -0.09348235, 0.08561369, -0.008306628, -0.08652445, -0.10613288, -0.11697345, 0.04524819, -0.070241034, -0.034420334, 0.110290185, -0.04053148, 0.0144085735, 0.004463263, 0.062877834, -0.04987625, -0.08211989, -0.09876938, 0.029942654, -0.073258296, -0.029083416, -0.07736527, 0.024993077, 0.06380466, 0.07904085, -0.099066705, -0.10587547, 0.07881044, 0.07660538, -0.098238744, -0.097059324, 0.09517311, 0.12819341, 0.021079957, 0.04936123, 0.058864534, 0.10030478, -0.0048580393, -0.026697267}, 
{-0.08119031, 0.046172097, -0.06801984, 0.020290598, 0.011113699, 0.0015699565, -0.07892071, 0.069590144, -0.07660876, 0.023671879, -0.06311047, -0.10273757, 0.014907736, -0.06415716, -0.06431355, -0.0009347596, -0.041962072, 0.10625282, -0.07124098, -0.045977782, 0.03549052, -0.010227083, 0.0485419, 0.05475147, -0.0040748315, -0.05788273, -0.052925907, -0.0043235794, 0.027825382, -0.026577774, 0.0035099685, 0.07999535, 0.09546439, 0.045373324, -0.024754189, 0.07867346, 0.05269151, 0.109832115, 0.055355515, -0.08624524, -0.0743729, -0.03173151, 0.047355153, -0.022166982, -0.06559433, -0.11121524, -0.08986968, -0.100402184, -0.0042578136, -0.029875621, 0.09623986, 0.07548331, -0.02536851, -0.08215995, 0.077409536, -0.093562126, -0.07026225, -0.042957366, -0.08229547, 0.0985101, -0.0736226, 0.015691156, 0.06777607, 0.009526544, 0.10668548, -0.10144939, -0.095439486, 0.012376163, 0.033163376, -0.021530872, 0.078291416, -0.07702868, 0.091038175, 0.015055403, -0.10981995, -0.07570407, 0.03849717, -0.02041503, -0.011345631, -0.0381412, 0.0922678, -0.047548432, 0.005866268, -0.065443136, -0.034075674, 0.053723127, 0.0012133524, 0.104689084, -0.010217793, 0.11612733, 0.104240105, 0.030966414, 0.041222584, 0.005116844, -0.07362701, -0.06852254, 0.029067079, -0.03536609, -0.03588821, -0.059099328, 0.013552472, -0.030426294, 0.06824428, 0.09971854, 0.08823466, -0.092299804, -0.032892667, 0.06521237, -0.0072751893, 0.07700811, -0.10971528, 0.11003177, 0.01756259, -0.10098707, 0.07899636, -0.090559304, -0.0768991, 0.093009815, -0.10379634, -0.01623127, 0.08932782, 0.103818625, 0.014037833, -0.12475243, -0.05531569, -0.031017255, 0.078259766, -0.017942369}, 
{0.094469294, -0.09291071, -0.06842461, -0.022693597, 0.03027754, 0.066697225, -0.08341019, 0.04372642, 0.12600346, 0.08220083, 0.062379874, 0.06419001, 0.013050361, 0.12522545, 0.057823196, 0.1057814, -0.08738741, 0.12430052, 0.066534035, -0.06272524, -0.0396531, 0.02853639, -0.034198493, 0.11467612, -0.042592887, 0.08002598, -0.0010312498, -0.041405335, 0.08337364, -0.011388356, -0.08451769, 0.071922585, -0.116427265, 0.037220053, 0.05284029, -0.048548155, -0.040567864, -0.07478484, -0.06511327, -0.066528894, -0.0022928566, -0.044046536, 0.0043419893, -0.008317179, 0.056111857, -0.041756205, -0.110996276, 0.056881137, 0.05074936, -0.039988995, 0.001113305, -0.017863587, 0.02124102, 0.022765627, -0.0014060885, -0.114213295, -0.03773399, 0.007267166, 0.011198135, 0.10789634, 0.07706203, 0.09539264, 0.052424632, -0.0054195453, -0.112999685, -0.015814237, -0.041320667, 0.11026462, -0.09942978, 0.03950398, -0.0059745335, 0.028269436, -0.10090924, -0.055073652, -0.01607919, -0.038787697, 0.007498522, -0.015301627, 0.04834815, -0.07594911, 0.050373778, -0.049035307, 0.07324863, -0.068381526, 0.029195534, 0.09234729, -0.08289202, -0.08768503, -0.001363337, -0.11962295, -0.048294622, -0.15470646, 0.04278211, -0.025995364, 0.052822888, -0.07258655, 0.037111618, 0.04985492, -0.0782423, 0.026810452, 0.010468423, -0.09916832, 0.06008346, 0.063659534, 0.052192733, -0.0051140785, 0.06607737, -0.11813294, -0.060657304, 0.005011287, 0.06985663, 0.108226195, -0.008904456, 0.11137417, -0.058311086, -0.14101502, 0.09303342, -0.103367686, 0.025583062, 0.099611774, 0.09141264, -0.060817596, 0.015101716, -0.0004289609, -0.011104681, -0.05031673, 0.08678134, -0.102318086}, 
{-0.11788969, 0.032161243, 0.100854814, 0.0342772, 0.042181045, -0.07665505, -0.02177488, 0.042450868, 0.079096965, 0.06360202, 0.03461219, 0.008178485, -0.10881413, 0.0870389, -0.11347734, 0.012128282, -0.06224342, 0.10982868, 0.07911432, 0.08797106, -0.057138827, -0.04721941, -0.030115329, 0.043138474, -0.07794426, -0.11077964, 0.099037275, 0.0033973232, -0.10429848, 0.06851613, -0.054913536, 0.10672622, -0.09261443, -0.10785749, 0.028440332, -0.08505956, -0.09649826, -0.013893361, 0.044290524, -0.05366943, -0.11905802, 0.042935684, 0.024698889, -0.056646638, 0.07659681, -0.09438062, -0.006857753, 0.11719861, 0.017819453, 0.095511675, -0.010568919, -0.074543014, 0.046966255, 0.09243042, -0.010322623, -0.10711528, -0.11800036, -0.093465745, 0.052499723, 0.020951644, 0.09131511, 0.037030768, -0.017703058, 0.032413855, -0.05737252, -0.08238751, 0.05192925, -0.09393566, -0.10329503, 0.11369846, 0.0038198028, 0.02210229, 0.05623011, -0.09836018, 0.09772698, -0.11383811, 0.0020110284, 0.085454345, 0.069283664, -0.084670216, 0.0009011701, 0.009996531, 0.033841625, 0.08303514, -0.10505813, -0.012954824, -0.06431733, -0.05795058, -0.09211232, -0.05727245, 0.031157566, -0.005373461, -0.10153521, -0.08763669, 0.06348209, 0.0818243, -0.023368958, 0.090529814, -0.11889224, 0.0062156767, 0.115071654, 0.00046414137, -0.090779185, 0.053400345, 0.032852903, -0.0068601295, -0.04238055, 0.08493443, 0.10469798, -0.13359408, 0.0787482, 0.08814654, 0.057419006, -0.11627443, 0.051215217, -0.12011854, -0.026913755, -0.059908845, 0.09220019, 0.008860839, 0.11286048, 0.057123546, 0.0575002, 3.243992e-05, 0.116894156, 0.093917705, 0.040326953, 0.10395444}, 
{0.05674469, 0.14725742, -0.2522391, -0.08892633, 0.13325545, 0.08165838, 0.09225513, -0.037714377, -0.22008719, 0.07581986, -0.07034493, -0.08743197, 0.1304546, -0.22579218, 0.22909136, -0.04862908, 0.08959147, -0.06862597, 0.24629788, 0.08866573, 0.2613901, -0.06102138, -0.010657305, -0.10898365, 0.048591238, -0.17558134, 0.035952643, -0.07259716, -0.10140205, 0.112587094, -0.01811748, 0.24412829, -0.10041435, -0.06143851, 0.055180304, 0.10639741, 0.1709096, 0.048646897, 0.08709885, 0.01987753, -0.019602366, 0.11248408, -0.090844326, -0.052231137, -0.047730654, -0.052348293, -0.0987252, -0.039012946, -0.0702746, -0.028635524, -0.03343068, 0.07974213, 0.11986963, -0.08630158, -0.048647597, -0.0405744, -0.013177237, -0.13771851, 0.046111576, -0.03630571, -0.24845693, 0.10173038, 0.06694867, -0.09840972, -0.045419477, -0.21601489, 0.114934385, 0.069772996, -0.034618426, 0.050641336, -0.16179752, 0.070236914, -0.006166422, -0.040685456, -0.11077214, -0.017086003, 0.08767098, -0.11256553, 0.020782353, -0.0087372, -0.056459382, 0.014965191, -0.10827357, -0.019253336, -0.02575669, 0.046468176, 0.037531305, -0.1257074, -0.012574963, -0.08664705, 0.07765358, 0.35044965, -0.045766417, 0.046767615, 0.039517, -0.116093904, -0.045361757, -0.056246236, -0.04229153, -0.045664944, -0.08891788, -0.002274245, -0.020939017, 0.007861893, -0.10967219, 0.011707917, -0.05168973, 0.002431291, 0.0519421, 0.08479949, -0.026744872, -0.008436471, 0.09572774, -0.15743738, -0.0812493, 0.25206384, -0.09735241, -0.027823284, -0.07515396, -0.11591142, -0.06861524, 0.072776936, 0.043971643, -0.066413395, -0.07317401, -0.23349233, 0.026990026, -0.1558202}, 
{0.09046081, -0.07101505, -0.07180763, -0.03894557, 0.09092643, -0.0002642572, 0.0024652854, 0.013009253, 0.032426294, -0.07602937, -0.034994334, -0.11570106, 0.012961488, -0.028463079, -0.10074403, 0.09377144, -0.10280931, -0.04019741, 0.0584598, -0.06438275, -0.048947416, -0.05198591, -0.037268933, -0.06910738, -0.07429846, -0.05753013, 0.021147236, 0.024930477, -0.07082828, -0.014921542, 0.06685272, -0.03979725, 0.07805827, -0.05798503, -0.030782124, -0.10039618, -0.07646512, -0.1268223, -0.11321958, -0.044325806, -0.063539416, -0.0643544, -0.035455745, 0.005895369, -0.03465885, 0.0573166, -0.111976415, -0.023651134, -0.08161939, -0.11890481, -0.09687031, 0.056653082, 0.0015968867, -0.09601763, 0.023739487, 0.08095048, -0.03648857, 0.10037797, -0.12126035, -0.09801781, 0.027932856, -0.043433875, 0.06346515, 0.043568067, 0.06246412, -0.0736887, 0.039192393, 0.034634903, 0.016482221, 0.01028036, 0.07011639, -0.07724779, 0.07490218, -0.016082805, 0.036998685, 0.09200951, 0.066890545, 0.044035602, -0.10348002, -0.11746816, -0.037819892, -0.085979834, -0.05740612, -0.017082173, -0.033978876, 0.0015708985, -0.040775158, -0.025708666, 0.020894319, 0.052568793, 0.036985293, -0.0015495998, -0.08351084, -0.0047772736, 0.021443993, -0.07226353, 0.12583965, 0.09422241, -0.03389646, -0.07019828, 0.08465515, 0.106546804, -0.08459015, 0.0681795, 0.077668175, -0.035167173, 0.11811456, 0.051630262, -0.07878405, 0.024257023, -0.083328635, -0.09918212, 0.00028049, 0.007077207, -0.045237847, 0.05391019, 0.0939306, 0.06612985, -0.076373756, 0.09882135, -0.07674466, 0.042227138, -0.05834072, -0.11744278, -0.025232188, 0.016098209, 0.010534197, -0.08724712}, 
{0.09009791, -0.036522623, -0.03507809, -0.11085832, -0.07420676, -0.06996005, -0.03506641, 0.059702646, -0.044571273, -0.047481045, 0.06042013, 0.0862904, 0.06290277, 0.10673281, -0.06641368, 0.0038805907, 0.054609448, -0.03621253, -0.07705464, -0.13036181, -0.025454607, -0.119116075, 0.05332508, 0.048728973, -0.04558723, -0.0030760022, -0.046010688, 0.082832485, 0.010840067, 0.008943024, -0.064997524, 0.053821974, 0.09659687, -0.038620543, 0.09524449, 0.019822845, 0.04089411, -0.078377984, 0.0704705, -0.0032547042, 0.021649316, 0.080059364, 0.058762047, 0.06773454, 0.09980859, -0.09499036, 0.078931585, -0.13177176, -0.122286074, 0.07546973, -0.045631368, 0.03058891, -0.012256874, 0.00036536652, 0.08891384, -0.032274276, -0.019837037, 0.097750835, -0.08939999, -0.08407814, 0.044335514, -0.045688972, 0.12483966, 0.0034337987, 0.017804725, -0.017329538, -0.09954015, -0.00037338788, 0.029931653, -0.0975372, -0.047740392, 0.018286433, -0.06710475, -0.050009057, -0.005929019, 0.009211134, 0.027142191, 0.07597654, 0.12257616, -0.052616738, -0.05189397, 0.12768349, -0.11415551, -0.13957514, 0.115488835, 0.007790243, -0.03754851, -0.052254412, 0.0050319284, 0.04019679, -0.08736559, 0.008252648, -0.059481688, 0.026825577, -0.11803771, -0.0022705095, 0.11940586, -0.005795151, -0.109837, -0.10863135, -0.0625327, -0.08337557, 0.06723, -0.12832421, -0.00917881, -0.022734605, -0.02280341, -0.027758503, 0.013462233, 0.08304221, 0.025401607, -0.10557988, -0.1383984, 0.09020965, 0.051163107, 0.055077866, -0.09515522, 0.026546046, 0.07793258, -0.0053883353, 0.09301077, -0.023485376, -0.0860075, -0.024814695, 0.0068965256, 0.05088019, -0.10431118, 0.074316844}, 
{0.014779612, 0.11063649, 0.0043622674, 0.08737616, 0.20234993, -0.078293644, -5.669892e-06, -0.09948747, -0.0153740775, 0.042210925, -0.16502056, -0.03848841, 0.049732253, -0.10647939, 0.14251478, -0.12924968, -0.11101964, -0.034420084, 0.049828563, 0.060314655, 0.06820753, 0.07318591, -0.105471626, 0.041184828, 0.07024298, -0.20931634, 0.09126787, -0.054518938, -0.07172274, -0.09990408, 0.074200615, 0.1992265, 0.07425311, -0.20378725, 0.075161554, 0.20555654, 0.16201521, 0.07838894, -0.046327673, -0.035350572, -0.030719645, 0.04447925, -0.03639243, 0.020094743, 0.064538255, 0.008999625, 0.11079484, 0.030598598, -0.093431674, 0.0508665, -0.059104137, -0.08019194, 0.010438184, -0.01726107, 0.08875394, -0.024288721, -0.16758896, -0.09654099, 0.08340555, -0.07519579, -0.15214023, 0.0059365616, 0.019544858, -0.15382978, -0.070353836, -0.08931232, -0.111392125, 0.06597003, -0.1152218, -0.040516518, -0.1650826, -0.053995613, 0.040608533, -0.15337211, -0.082886904, 0.10405837, 0.0016602187, 0.111062, 0.016522268, -0.05970088, 0.061271846, -0.174747, 0.09618897, 0.032021753, -0.17026715, -0.05360537, 0.04336359, -0.18754564, -0.08521496, 0.05157061, 0.028362373, -0.0011489629, -0.099018656, -0.05289039, -0.0765159, 0.08040553, -0.05608044, 0.055047423, -0.012953289, -0.11003011, 0.080723315, -0.046784066, -0.12666392, -0.1357996, 0.0005728081, 0.0071018487, 0.07054259, 0.10956912, 0.01169943, 0.15925224, -0.016895615, 0.11783968, 0.13409637, -0.2106621, -0.11339055, -0.0117689865, -0.07951911, 0.072613284, 0.08941448, 0.0685529, -0.06864321, 0.1543596, 0.059031382, 0.06829638, -0.10924891, 0.021139916, -0.021834977, 0.014960616}, 
{0.010492178, 0.13422763, 0.033829235, 0.023609772, 0.080279656, -0.08699067, 0.07096876, 0.10205571, 0.042825762, -0.0028194613, 0.0115810055, 0.10206442, 0.13115731, -0.117028974, 0.17695205, 0.08568131, 0.10459353, -0.055387802, -0.022284374, 0.058533236, 0.08601395, -0.11967092, -0.11322664, 0.112738684, 0.00017041588, -0.08236577, 0.015932366, -0.03141325, -0.06296679, 0.07808083, -0.048955493, 0.05385287, -0.015900843, -0.0193764, 0.04653055, 0.12779044, 0.14389177, 0.00095035287, -0.024628948, -0.09582067, 0.019315466, 0.033060968, -0.06251976, 0.027483255, 0.003046535, 0.09415602, 0.054522485, 0.03729954, -0.08880166, 0.02238284, 0.09774145, -0.05461672, 0.06972726, 0.10618769, -0.012908079, 0.09994717, -0.20734532, -0.04426596, 0.06827655, -0.019951776, -0.0018815486, 0.048821848, 0.04592148, -0.10471559, 0.079660416, -0.06500837, -0.0068371966, -0.005559215, -0.1366969, -0.060429752, -0.005524707, -0.103475735, -0.031887107, -0.06043666, -0.08449624, -0.04373851, -0.044837933, -0.03999845, -0.0006785769, 0.021887675, -0.018875055, -0.021282474, -0.062994726, -0.06608543, -0.15088765, -0.06639445, 0.17313178, -0.15857115, -0.023299217, -0.040123396, -0.1221082, -0.09410875, 0.066114895, -0.008779407, -0.07829966, -0.051554777, 0.04347906, 0.030196026, -0.052811347, -0.09828822, -0.08373463, -0.114541344, -0.123034306, 0.10054697, 0.08624613, -0.10928498, -0.058994472, 0.01651835, -0.07243996, -0.1989696, -0.03250572, -0.096136875, 0.0365389, -0.090823285, -0.10664936, 0.0992793, 0.002218239, 0.023811549, 0.095240064, 0.0037301215, 0.022463964, 0.091498844, -0.119092554, 0.055800468, 0.11513911, -0.10473527, -0.10684733, -0.017106017}, 
{0.014947233, -0.064187825, 0.060826223, 0.052084327, 0.055717584, 0.018589303, 0.08569205, 0.07488548, 0.15194185, -0.031244777, 0.061765797, 0.041326586, -0.085311316, -0.08385392, 0.0803119, -0.05565691, 0.068410456, -0.05195463, -0.06166222, -0.050914723, 0.027881358, -0.078367755, 0.056093644, -0.044468306, 0.09008389, 0.028070971, -0.09387308, 0.013554528, 0.017193139, 0.016600026, -0.036627293, 0.07623966, 0.0030752271, 0.04016548, 0.102130994, -0.035609122, 0.10559573, 0.06892924, -0.030454962, -0.084926605, 0.089588016, 0.013904795, -0.17662902, 0.024426918, 0.07249841, 0.014056508, 0.113726676, -0.011084136, -0.01088494, -0.10866244, -0.024151891, 0.072732106, 0.04584989, 0.06942517, -0.09960879, -0.041240975, -0.16898584, 0.084650986, -0.124102466, -0.018205099, 0.103233054, -0.041449428, 0.0106638735, -0.07328389, -0.04263468, 0.044607125, 0.011305764, 0.043518122, 0.0787159, 0.10893165, -0.10507308, -0.0012471713, -0.08818305, 0.077450976, 0.07280241, 0.10962543, -0.06488298, -0.08043196, 0.14117809, 0.075310834, 0.05000727, -0.11854401, -0.08986178, 0.056194626, 0.0608699, 0.01892686, 0.1132175, 0.13057531, -0.117334194, 0.09417786, -0.11450351, -0.17678817, 0.10042326, 0.03803228, -0.05509369, -0.08632948, -0.111786075, 0.043657333, -0.010551311, -0.07015367, -0.06807032, -0.057527453, 0.06579529, 0.023076573, 0.006408274, 0.06370577, 0.054098666, -0.05526816, -0.10303693, -0.14427496, 0.10061522, 0.08453934, 0.0836451, 0.08232526, -0.079064816, -0.0338752, 0.0053515285, -0.0760391, 0.008237787, 0.028518427, -0.043729965, -0.0010450464, -0.03943626, -0.09130704, -0.056086093, -0.11639269, 0.0061643124, -0.097428896}, 
{0.04942846, -0.03534035, -0.0014700422, 0.107558146, 0.016801449, 0.11703618, 0.04686667, 0.0057261745, -0.098334104, 0.07486853, -0.08509928, 0.10387269, -0.101264395, -0.094351225, -0.012958858, 0.0019622007, 0.0067994, 0.06325978, -0.0010676981, 0.03893418, 0.053583678, -0.05144365, -0.116545275, 0.03711237, -0.04152777, -0.06783079, 0.009205535, -0.03593488, 0.08725139, 0.09806813, 0.00061778724, 0.14911976, 0.09904061, 0.030471599, 0.04872467, 0.119109936, 0.09179694, 0.026373608, 0.049827866, -0.115156405, 0.04061368, -0.036131077, -0.10180981, 0.08651633, 0.0359295, -0.06249061, 0.09186658, -0.020823887, -0.09030693, 0.113876104, 0.0057661915, 0.08031194, -0.04540475, -0.10268039, 0.019687831, 0.027373403, -0.06737545, -0.061870854, 0.10926877, 0.04327497, -0.040676385, -0.007822027, -0.040500857, 0.040301174, 0.1087354, 0.057292096, 0.0022511631, -0.07391553, -0.0018868344, -0.09274042, -0.050149884, 0.023284368, 0.07290422, 0.017896025, 0.017886702, 0.05416108, -0.043611307, 0.023536146, -0.017566605, -0.12582003, 0.00546515, 0.11275548, -0.094680995, 0.07511249, 0.035325445, 0.06613051, 0.13532147, -0.100295454, 0.0063706785, -0.000514023, 0.02287845, 0.05129914, -0.0022571508, 0.065404385, -0.022103786, 0.029295266, 0.042030584, 0.04587628, -0.005881302, -0.044240132, -0.031749718, -0.07713775, -0.06886743, 0.08689887, -0.08827865, -0.08876398, -0.023078315, 0.023033917, -0.08590217, 0.0062257014, -0.027755223, -0.0136212185, 0.040182654, -0.024980346, -0.009000689, -0.03179958, -0.08058372, -0.058949005, 0.07618054, 0.005051745, -0.089334495, -0.0093593355, 0.05191475, 0.08436923, 0.08928688, -0.078206904, -0.028388701, 0.0006993769}, 
{-0.005115081, -0.06817645, -0.01705225, -0.0055703223, 0.0010771729, 0.028626531, -0.00697203, 0.10991349, 0.027550904, 0.039921444, 0.019634683, 0.027950566, -0.09649115, -0.083715744, -0.073708504, 0.06294569, -0.03446675, 0.07780363, 0.07844162, 0.12684084, 0.063508324, -0.04582867, 0.06962884, -0.014250457, -0.015313021, 0.043847308, -0.06571536, 0.027192473, 0.09981771, 0.01525983, -0.058203567, -0.04950266, 0.08955203, 0.08503435, -0.068500124, 0.02501376, 0.04312249, -0.08423771, -0.1251238, 0.046717238, -0.038717598, -0.09711925, 0.10441321, 0.095989585, -0.034580424, -0.02395855, -0.05722692, -0.07590411, 0.08006329, -0.024994731, -0.09826503, -0.0028775185, 0.025078714, -0.0035857628, -0.08255823, 0.014648691, 0.07250349, -0.10275189, -0.067960635, -0.08253965, -0.043793004, -0.011089497, -0.035571713, 0.062383723, 0.034792896, -0.017840166, 0.054675907, 0.0143556325, -0.05197206, -0.058471486, 0.08022175, -0.08433741, -0.11144952, -0.058956046, 0.064704, 0.025166929, 0.053345464, 0.03138326, 0.047525268, 0.09905753, -0.04354222, 0.024908908, 0.009892098, -0.07897356, -0.10237653, -0.11922033, 0.0010597777, 0.108409695, 0.11434017, -0.10315311, 0.040942844, -0.105280705, 0.074532315, 0.046056982, -0.017511033, 0.06674682, 0.06711762, 0.018222675, -0.043093912, -0.019227847, -0.098986074, -0.027571686, -0.11885762, 0.10849861, 0.019686311, -0.05560173, -0.023791395, -0.09127139, 0.073192514, -0.12595317, 0.06944743, -0.01832129, 0.083321854, 0.047603767, -0.081342295, -0.06441719, 0.07947278, -0.11386331, -0.10574791, 0.096798174, 0.07530876, 0.09952911, -0.03689435, 0.11061611, 0.018922508, -0.028212605, 0.05444905, 0.0793043}, 
{-0.038208246, -0.04786232, 0.09126293, 0.11325887, -0.03714017, -0.05775566, 0.05314845, 0.11142168, -0.0048343246, 0.0015571682, -0.0005715997, -0.023028977, 0.11291057, -0.05214471, 0.10915815, -0.090125054, -0.056927018, -0.056250807, 0.02321633, -0.05716718, -0.01565195, 0.06803157, -0.041885603, -0.06735269, -0.119544856, 0.0052303374, -0.011598088, 0.111984745, 0.0047241948, -0.028998988, -0.07771419, -0.039029896, -0.044912465, -0.08938923, -0.107258305, -0.012324896, -0.057211153, -0.060416978, -0.07733405, -0.06844515, -0.11111685, 0.08133806, -0.054838892, -0.104387544, 0.08544603, 0.05870008, 0.0045863166, -0.0772162, 0.09135025, 0.025767252, 0.11367412, -0.11631457, 0.01825668, -0.051447146, 0.013679683, 0.020892039, 0.10151141, 0.1150271, -0.070631556, -0.06688385, 0.10295732, -0.028489828, -0.004438351, 0.02523922, 0.05618304, 0.060665637, 0.0047037974, 0.058483347, 0.08896829, -0.11763267, 0.030255303, -0.025788937, -0.05659264, 0.061188992, -0.089535646, 0.11307477, 0.044074647, -0.016866766, -0.03919493, -0.0030630108, 0.10999197, 0.06284936, 0.08162662, 0.076293916, 0.005801352, -0.066016145, 0.12049442, -0.01669956, 0.010889068, -0.05121041, 0.0045647146, 0.0431092, -0.08306439, 0.021241035, -0.013154723, 0.03768697, -0.045320738, -0.052385516, 0.0056093186, -0.017654799, 0.057896674, 0.096306205, 0.10408154, 0.087489285, 0.010998622, -0.08762155, 0.11641134, 0.06860598, 0.09463735, 0.101110056, -0.029270373, -0.089234225, 0.09509601, -0.08152827, -0.089006364, -0.10320399, -0.088422135, -0.11541414, -0.01778649, -0.024010852, -0.08405654, 0.014304851, 0.0789319, -0.106031194, 0.03763418, 0.060394414, -0.10370808, 0.037167326}, 
{-0.037967373, 0.061987896, -0.02117212, -0.04175984, 0.058319904, -0.1096029, -0.010032736, -0.039066996, 0.020846065, 0.04741138, -0.084991105, 0.07805593, -0.07442534, -0.009633273, -0.064940445, -0.110816225, 0.026449323, 0.050286293, 0.10867045, 0.051309317, -0.026698684, 0.07190416, -0.055162393, 0.05271548, -0.12557386, -0.05626235, 0.056580216, 0.078060165, -0.121201344, -0.014122353, -0.07593198, 0.09224721, -0.08879167, 0.11381047, 0.06476974, 0.005392693, 0.07751937, 0.036395542, -0.05272227, -0.00962506, -0.06585343, -0.0051892996, -0.0636391, 0.1096495, -0.11286702, -0.070722595, -0.079264365, -0.04574003, 0.058755606, 0.08166812, -0.11424217, -0.007886454, 0.08966094, 0.10306554, -0.061974842, -0.08349651, -0.014357828, -0.07850618, -0.06968006, 0.0032129511, 0.009409203, -0.1112867, -0.067598805, -0.03417652, 0.02912296, -0.009129832, -0.048025027, 0.01372265, 0.08231549, -0.08556606, 0.09543496, -0.0027147948, -0.06088892, 0.018866356, 0.06357371, 0.03093635, 0.060909778, 0.004121563, 0.111114904, 0.049177397, 0.07030353, -0.082321584, 0.10479178, -0.054448996, -0.0113750845, -0.10321641, -0.05429094, 0.09829623, -0.024289958, -0.11883274, 0.040362652, 0.011957689, 0.006907622, -0.112751715, -0.049738497, -0.01126591, 0.08423875, 0.025513113, -0.054492228, 0.114424124, 0.115038365, -0.008857638, 0.057225835, -0.082448676, -0.0875662, 0.10739188, 0.0046548024, -0.027762456, 0.027537437, 0.018229853, 0.07307708, -0.04219137, -0.08033874, 0.0356326, 0.084800094, 0.0135580925, 0.11142872, 0.050798923, 0.10237461, -0.102559716, -0.03799851, 0.11081101, 0.046880394, 0.06815369, 0.015444234, -0.017773239, 0.00475356, 0.03630109}, 
{-0.04576211, 0.016285343, -0.034884647, -0.06154079, -0.08533554, -0.047594875, 0.0063337684, -0.061614744, 0.121747635, -0.026827632, 0.030520417, -0.08268222, 0.0028909256, 0.0045923567, -0.11535796, -0.010448349, 0.05771689, 0.053085443, -0.058796503, 0.104001015, -0.054918744, 0.051256333, -0.0061405385, -0.06737542, 0.07785918, 0.091379434, 0.015956849, 0.042033374, -0.024207968, 0.09916531, -0.031769566, 0.004432151, 0.1168728, -0.047796424, -0.088644214, -0.021054776, -0.055626824, -0.043102648, -0.06845643, -0.036464944, -0.06480491, 0.017456308, -0.035828173, -0.066101484, 0.104226485, -0.123665005, 0.10798092, 0.0688725, 0.075753614, -0.067156896, 0.06372075, 0.028217167, -0.062886305, 0.055353772, 0.08097325, 0.04714802, 0.08224661, 0.15194769, -0.08060095, 0.07899198, 0.015012034, -0.06765102, -0.04329672, -0.034444936, -0.016396875, 0.037047237, 0.057741493, -0.10305917, 0.017062893, -0.049145583, 0.020795487, -0.04351597, -0.08999585, 0.055506513, 0.021310274, -0.100737385, 0.020695407, -0.022051506, -0.009789351, -0.07528385, -0.04243756, 0.06857675, -0.00799107, -0.11222997, 0.06829692, 0.024195747, -0.038715158, -0.051863723, -0.020292684, 0.023027629, 0.033424493, -0.053567372, -0.028844751, -0.096697934, 0.01026994, -0.07635558, 0.09780475, 0.10634926, -0.1065608, 0.026337653, 0.116007224, -0.033380695, -0.05636172, -0.10609145, 0.087928295, 0.025710389, -0.07584868, 0.04345417, 0.08389145, 0.11684049, -0.053322047, 0.06684156, 0.0024823535, 0.06053081, 0.11950874, -0.102192156, -0.0008828193, 0.08228508, 0.09279999, 0.060868185, 0.0015977413, -0.10184648, -0.088352636, -0.11607432, 0.007466376, 0.0067948936, -0.057396345, 0.048050478}, 
{0.0102298055, 0.14083664, 0.0005651799, 0.06745267, 0.048182853, -0.08091538, 0.01617819, 0.09137774, -0.13985913, -0.11766489, -0.13685693, -0.10738976, -0.036014616, -0.10403414, 0.1405391, 0.09502741, 0.034718484, 0.06699408, 0.08425736, 0.07338523, -0.05350052, 0.11036462, 0.063428804, 0.041437775, -0.021372069, -0.04896049, 0.063684404, -0.08959924, -0.099833526, -0.0129030915, -0.10913761, 0.019317253, -0.07568224, -0.081154555, -0.081625775, 0.030206768, 0.022128887, 0.08018315, -0.02448113, -0.14951201, -0.0009871274, 0.085202396, -0.030562697, -0.07922006, 0.038185447, -0.05167252, -0.0043341145, 0.005481912, -0.04300182, -0.047427796, 0.011932454, -0.037358522, 0.013605625, 0.07860019, -0.042632006, -0.10501395, 0.090619944, 0.068552144, -0.059883613, 0.08806668, 0.035040252, -0.009408023, 0.1408583, -0.0359916, 0.09554611, -0.05895306, -0.10732665, -0.083938204, -0.016970463, -0.09534691, -0.1377719, -0.089075625, -0.042379986, -0.13369004, -0.067813054, 0.10113346, 0.006257168, 0.10862933, -0.029000487, -0.046261255, -0.0562367, -0.13118537, 0.016258838, 0.09491096, -0.022918817, 0.06937445, 0.10511024, 0.05914526, -0.083926216, 0.074303985, 0.08866794, -0.012069135, -0.10189332, -0.0066367467, -0.07208231, 0.09296887, 0.043148026, -0.08420733, -0.08513032, -0.078689955, -0.08921272, 0.1085553, -0.018407494, -0.043233532, -0.052297436, 0.08782737, -0.07263834, -0.05936094, 0.004821573, -0.041196894, -0.07988141, 0.06709032, 0.09290776, -0.13268434, -0.058685523, 0.12523894, 0.06281099, -0.041123554, 0.06936332, -0.027767537, -0.007926039, -0.07239633, 0.08649506, 0.10707885, -0.10973501, 0.08132323, 0.082161635, -0.041996386}, 
{-0.09899736, 0.0938717, 0.07298321, -0.10982618, -0.03255572, -0.07151088, 0.09850469, 0.012460906, 0.110787265, 0.09113257, -0.07555074, 0.05528906, 0.031656712, -0.0021841235, 0.08016278, -0.027570914, -0.07081275, 0.041081734, 0.09754061, 0.10110009, -0.08221455, 0.014958419, 0.048841804, -0.10310292, 0.062815934, 0.043826107, -0.08966753, -0.08137294, -0.012563633, 0.093977585, -0.06388252, 0.13391897, 0.06322098, 0.020443492, -0.07370973, 0.037670426, -0.09233272, -0.040320896, -0.025364175, 0.09238759, -0.018821165, -0.06296635, 0.088770494, 0.08584962, -0.0659706, 0.055258583, 0.0016160011, -0.014463098, -0.10186264, 0.014133289, -0.019407956, -0.024352834, -0.028445652, 0.11049814, -0.004568644, 0.059083402, -0.03169511, 0.106959246, 0.11250931, -0.054924726, -0.104174554, -0.053268656, -0.0098119825, 0.024863476, -0.005085547, 0.07360952, -0.031764954, 0.017999167, 0.10383274, -0.028861834, -0.078149535, -0.10174138, 0.0975434, -0.01153694, -0.11149011, 0.06983106, 0.028850604, 0.0722672, -0.058905452, 0.06822826, 0.11017628, -0.04986374, -0.048052657, 0.030878304, -0.016070038, 0.08110325, 0.021605862, -0.094384216, -0.11372143, -0.07347843, -0.113759756, 0.092363976, -0.046189923, -0.035599966, 0.06998299, 0.11701967, 0.07050998, -0.016719721, -0.09717861, 0.0271876, 0.117556155, 0.0182167, 0.028001817, -0.11477879, 0.053690553, 0.07135956, -0.1190027, 0.09198163, 0.059476025, 0.0904935, 0.044575945, 0.09680474, -0.0645401, -0.09149832, 0.05340734, 0.055547487, -0.04126589, -0.1165493, -0.11916537, 0.0896221, 0.09022391, -0.026851166, -0.069384694, 0.052593514, 0.059407786, 0.00884653, 0.10149053, -0.07432972}, 
{-0.09391269, -0.046399485, -0.11324184, 0.0004445836, 0.014746914, 0.07139701, -0.08462961, -0.052899644, -0.043088295, 0.0754758, -0.10765502, -0.06997883, -0.033979032, 0.062943846, -0.068320945, 0.048711542, -0.058163397, 0.10730789, 0.011009619, 0.062642045, -0.024290409, 0.110862486, 0.03977691, -0.05940049, -0.06833232, 0.024083383, -0.111395046, 0.10436401, -0.082937516, 0.092472464, -0.117382154, 0.018348325, 0.029227078, 0.06571096, 0.03634744, 0.01203239, 0.036982115, 0.042312913, -0.012514881, 0.11002613, 0.031016275, 0.07645437, 0.10400242, 0.095643036, 0.026755676, 0.091815494, -0.02868443, 0.0346694, -0.06384125, -0.11955567, -0.00899462, -0.03263288, -0.08986209, 0.042911053, -0.114389844, 0.1002502, 0.07426626, -0.06555266, 0.030898444, 0.070103735, -0.119360186, 0.07058674, 0.070909075, -0.06410847, -0.067304686, 0.014638728, 0.111603275, 0.033793755, -0.046905957, -0.120438956, 0.10210278, -0.042697, 0.05873824, 0.010309113, 0.009122814, 0.07301732, -0.054442678, -0.11708573, 0.13432248, 0.053914543, -0.02385731, -0.08164491, 0.046214916, 0.09310952, -0.06481637, 0.08006048, -0.035225406, -0.11541404, -0.025446936, 0.11427921, -0.015125161, -0.046762843, -0.057969924, -0.070619024, 0.015464246, -0.09432333, 0.09807149, 0.028079748, -0.017410696, -0.049937062, -0.07762849, 0.087567285, -0.0965835, -0.0092954645, -0.058645464, -0.00817889, 0.10160042, -0.05225505, -0.010830871, 0.10738456, 0.0042210147, 0.0917107, 0.051283393, -0.06565013, 0.026872292, 0.032774188, -0.01957462, -0.10975159, 0.024733463, -0.00076712016, -0.107347995, -0.022897752, 0.079400435, -0.009509929, 0.116350785, -0.01715196, 0.10959293, -0.06466512}, 
{0.08268875, 0.02309805, -0.020074269, -0.1043726, -0.01909286, -0.02700051, -0.057281785, 0.02536668, 0.09203349, 0.024778953, 0.0034096455, -0.030904, 0.07441892, -0.038098432, -0.08150732, -0.078292474, -0.10385646, -0.06749942, 0.06880187, 0.057654526, -0.029230189, -0.054518398, 0.104527295, 0.05031158, -0.02288143, 0.04210316, -0.06529554, 0.09709233, -0.087861724, -0.118154295, 0.03115569, 0.065531634, 0.015215918, -0.081508085, -0.044425525, 0.0727177, 0.10417403, -0.08160359, 0.09518469, -0.101159096, -0.106016286, -0.08754387, -0.037449487, -0.03618739, 0.11812979, -0.10470127, 0.013981253, -9.0469206e-05, 0.036058336, 0.05524066, -0.04666129, 0.10209246, 0.0095386505, -0.0272391, -0.04033345, -0.021978542, -0.056411076, -0.0226435, 0.104081996, 0.052376032, 0.02417683, 0.06428218, 0.08029091, 0.10242752, -0.12754154, 0.009807701, 0.11525661, -0.11358515, -0.10146198, 0.09141045, -0.027372178, -0.06258853, -0.053117517, -0.019893678, 0.051826432, -0.08216945, 0.105327, 0.08500094, 0.119954355, -0.06995897, 0.06559917, 0.07279585, -0.0437255, 0.03494449, 0.04930855, 0.04875286, -0.08083588, 0.08244462, 0.070924416, -0.10945163, -0.084555164, -0.037621286, 0.0062615373, 0.030954355, -0.042221174, 0.07140197, 0.107491165, 0.10092603, -0.05053979, -0.08228657, 0.10385162, -0.011039108, -0.110383354, 0.06658701, -0.09104398, -0.06378858, -0.03505055, 0.08170229, -0.121814124, 0.10996463, 0.08756141, -0.0053282306, -0.0595107, -0.114086986, -0.008666426, 0.026709847, 0.04250236, 0.08282708, -0.021904076, -0.104077615, 0.012570012, 0.105685145, 0.039236516, 0.05472271, 0.11736162, -0.07868789, -0.04319697, -0.12672332}, 
{-0.019371333, 0.09866335, -0.11464364, -0.06073076, -0.068863355, -0.08128506, -0.009528853, -0.0057388768, 0.08822582, -0.08728937, 0.081440076, 0.028764317, -0.0028050554, 0.0069899866, -0.027616939, 0.05217054, 0.11989379, 0.046772305, -0.004745744, 0.0073270756, -0.033644732, 0.0826259, -0.112910934, 0.012343258, 0.033480916, -0.09604528, -0.04602503, -0.06946653, -0.12248351, 0.024226284, 0.081267715, -0.035787854, 0.06015332, -0.056673083, -0.07201294, 0.105069384, 0.022136673, 0.08657511, 0.08959155, 0.10198336, -0.022748947, -0.073338106, -0.06729644, -0.036259104, -0.030948453, -0.027384223, 0.10556723, 0.08896193, -0.0016665315, 0.014734611, -0.028440991, -0.03452009, 0.096532136, 0.09628871, 0.022108346, -0.11413183, 0.013376926, -0.017279822, 0.006357999, 0.09134354, 0.120093934, 0.07939467, 0.11610825, 0.06973511, -0.046493683, -0.1016156, -0.06573403, -0.025604436, -0.015013284, -0.04006794, 0.014081468, -0.05967993, 0.008275425, 0.02688148, -0.014011823, 0.028808126, 0.09115333, 0.10456492, 0.12186427, -0.08106847, -0.11469525, 0.016723376, 0.10699587, 0.010933517, 0.07463433, 0.078921385, -0.0220818, 0.07586685, 0.000926286, -0.09550907, -0.08906178, -0.0912001, -0.10019077, -0.0015558625, -0.1038647, -0.028168637, -0.06940574, -0.06821346, -0.11467523, 0.079299, -0.042133935, -0.08259391, 0.0915151, 0.0274202, 0.062304005, -0.06248262, 0.062038064, -0.116763696, 0.053794097, -0.007756335, -0.08812451, -0.10602634, 0.11626285, 0.03403048, 0.060355633, -0.042851027, 0.03133042, -0.111827835, 0.107321486, -0.10074344, -0.07531546, 0.10992557, 0.026900962, -0.03202873, -0.11742513, -0.041368313, -0.05056946, 0.08695345}, 
{0.0766355, -0.025825523, -0.07746676, -0.034537755, 0.030650858, -0.09596384, 0.11633198, 6.424061e-05, 0.086164325, 0.078074895, 0.08968489, 0.0031830175, -0.10053187, 0.11107772, 0.0391482, -0.02524831, 0.06787032, 0.060881957, -0.14878519, -0.09528165, -0.11705435, 0.09080412, 0.08616739, -0.0027730614, 0.001482937, 0.028889274, -0.11001361, 0.11068721, -0.019101996, -0.10111656, -0.054824226, 0.02790908, 0.09603576, -0.009935915, 0.021075847, 0.054006625, -0.011177063, -0.07885582, -0.069272354, -0.05862729, -0.0257757, 0.011091113, 0.049850553, -0.03799969, 0.07890971, -0.022284387, -0.061371226, -0.0710566, 0.030487325, -0.008320704, -0.0853379, -0.04721789, -0.118251234, 0.07229523, 0.09572667, -0.094127655, 0.020940667, -0.0019455756, 0.1084458, -0.022184506, 0.023533288, -0.117340855, -0.060732774, 0.0020059478, 0.06762839, 0.0968862, -0.096654706, 0.08395657, -0.06885288, -0.08161432, 0.13028127, 0.06746775, 0.08029989, 0.09927917, 0.012766813, -0.083512664, -0.09195375, 0.10888915, 0.0050818813, -0.08267154, -0.0660197, 0.04599116, 0.033021916, 0.027992139, -0.024609355, 0.045502298, -0.0065267305, 0.119732134, -0.022714071, 0.0245025, -0.09650283, -0.07690544, 0.04158985, -0.010173059, 0.07029843, 0.027037082, 0.0308512, 0.03527437, 0.081782654, 0.05645351, -0.012870401, -0.017121106, 0.10912869, -0.05908206, 0.09472655, -0.006009668, -0.07458196, 0.10130409, -0.025376527, 0.06417673, -0.10514051, 0.020373166, -0.009901208, 0.07313318, 0.021409139, -0.036146566, 0.10847327, -0.08851344, 0.08394547, -0.11818099, -0.014792917, -0.07556723, -0.05057787, -0.025560362, -0.097050704, 0.07053906, -0.091675915, 0.06246074}, 
{-0.02853802, 0.0763598, 0.12531249, 0.11363937, 0.023119554, -0.08127822, 0.1193492, 0.07698262, 0.06420887, -0.011784852, 0.15612201, -0.1006945, -0.17053553, 0.09781946, -0.006168024, -0.014272024, -0.06772761, 0.016939804, -0.10691952, 0.0560795, -0.12147807, 0.06297553, -0.09157685, 0.032234132, 0.050079618, -0.00060093426, -0.00827907, 0.05882345, 0.06822425, 0.023532484, 0.04738319, -0.06540265, 0.01789634, 0.048988596, -0.130625, 0.020707972, -0.063541055, -0.11643334, 0.07955729, 0.09261658, 0.049787536, -0.04568839, 0.08388623, 0.0064855465, -0.09832024, 0.010361294, -0.043574095, 0.06662563, 0.10602435, -0.090914644, 0.08291627, -0.05018978, -0.0948116, 0.037120774, 0.10068825, 0.0027775615, -0.10130434, 0.096840456, 0.08345727, -0.012240469, 0.08895485, -0.08766749, 0.02697324, -0.04080467, 0.0476364, -0.0328347, -0.054572627, 0.07207418, 0.095086485, -0.001897084, 0.05797778, -0.07121089, 0.027347887, -0.06324351, 0.043841127, -0.004709306, -0.14511676, -0.09809395, 0.05421459, 0.03578165, 0.030709818, 0.0014057324, 0.09480373, 0.07187088, 0.090490416, -0.01494071, 0.073060974, 0.114969075, 0.012272343, 0.058012247, -0.0940563, -0.15647247, 0.005649946, 0.04783432, 0.08787243, 0.07765108, -0.055430736, -0.05405526, -0.08002512, 0.028035566, 0.009353593, -0.024773024, -0.030588092, -0.03528474, 0.11692703, 0.03393048, -0.05039067, 0.039293926, -0.08786123, -0.009938249, 0.02055344, 0.106467485, 0.04823061, 0.055719707, 0.047573373, -0.15477084, -0.019367285, 0.11115585, 0.040369827, -0.013126585, 0.017715184, 0.0792247, -0.0010461137, -0.08505672, -0.026853912, -0.07421612, -0.091330916, -0.028904948}, 
{-0.09759963, -0.12786013, 0.12182242, -0.10683276, -0.07492161, -0.090864226, 0.033894166, -0.07562988, 0.02300366, -0.10530422, 0.0310904, -0.09132121, 0.049247466, -0.0028081345, -0.0133687435, -0.053151906, -0.12002124, -0.09094727, -0.11450006, 0.0364343, -0.036808122, 0.0006321085, -0.06747339, 0.0061332136, -0.12754312, 0.0074641467, -0.06555052, 0.07984318, 0.09874189, -0.1173352, -0.0491758, -0.07667138, -0.065737605, 0.118490815, 0.03631577, -0.00037646608, -0.023696115, 0.08816938, -0.0047039734, 0.020783558, -0.00033199787, 0.02214399, 0.099103905, -0.101355836, 0.0632769, -0.08431711, 0.11560051, -0.046258386, 0.026430063, 0.07933146, -0.0018929138, 0.10913941, 0.11382023, 0.08089343, 0.09271124, 0.061830476, 0.026690125, 0.07879775, 0.002859195, 0.049752012, -0.06683855, 0.0068023438, -0.0008012292, -0.07832796, -0.0552584, -0.06205684, 0.11054605, 0.01915004, -0.059481673, -0.0951335, 0.08080491, 0.03767335, 0.09583239, 0.05002289, -0.11885784, -0.10759197, -0.04859243, 0.10272817, -0.09262646, 0.020059174, 0.00914228, -0.0022296268, -0.08206641, -0.0664303, -0.06719668, -0.11143601, 0.02132367, -0.068727314, -0.035287432, 0.0020490438, -0.07595388, -0.026912395, -0.078215025, 0.011999996, 0.049761772, -0.00050188944, 0.11317055, 0.092759654, 0.012116596, -0.114402704, -0.10352689, 0.00882782, 0.06269402, -0.019058362, 0.08380662, -0.08040548, 0.011702687, -0.050655052, 0.109279886, -0.10511023, -0.029364064, -0.11485622, 0.06674213, 0.0025830462, -0.016969122, 0.013618347, -0.052150406, -0.118802644, -0.0814202, -0.05517941, 0.02140645, 0.14399944, 0.008013129, -0.08895712, 0.0772306, -0.014305205, -0.032631733, -0.104774304}, 
{0.07167839, -0.037285794, -0.025788559, -0.0073800236, -0.020653944, -0.09025468, 0.020578295, 0.10635903, 0.045712132, -0.06137162, -0.04176704, -0.12036813, 0.05394748, 0.01728298, 0.043157015, -0.028147733, -0.11107894, -0.0052873776, -0.035796177, 0.008000202, -0.046276566, -0.040032115, -0.10734086, 0.01323536, 0.06519638, -0.015626637, 0.11434372, -0.013049066, 0.10725845, 0.056296855, -0.072368845, 0.090304546, 0.07218872, 0.07312279, 0.047914226, -0.1190568, -0.09343601, -0.05249771, -0.070483856, 0.098443344, 0.06141892, -0.11178219, 0.080154635, 0.028072722, -0.031528555, -0.11644551, -0.10654709, 0.017762661, 0.020062836, -0.063840635, -0.08672789, 0.09044865, 0.08015279, 0.058204427, -0.025172003, 0.056493133, 0.04082424, 0.12794538, -0.051906094, -0.06101881, 0.071056396, -0.013610756, -0.08394415, 0.091339305, 0.0014052668, 0.10223661, -0.00016011298, -0.11781343, 0.12775831, -0.12275158, 0.060479157, -0.0063918945, 0.051235426, -0.03482695, 0.02071628, 0.112429045, -0.072793566, -0.03689199, -0.03945215, 0.08954802, 0.047928542, 0.062193435, -0.06548598, -0.121431746, 0.10770966, -0.0975812, -0.043647006, -0.053591333, -0.09640382, -0.11546408, 0.07538146, 0.029619934, 0.1027157, -0.102947734, 0.021656364, -0.11584091, -0.07843996, -0.032278918, -0.03270209, -0.09411208, 0.07332954, -0.07016005, 0.03881634, 0.033701815, 0.03810656, 0.09421714, -0.059784003, 0.052906957, -0.083505765, -0.12514345, -0.04644213, -0.105740316, 0.03899106, -0.039870884, -0.09092851, 0.05487969, 0.06894392, -0.11980984, 0.017762717, -0.028638562, 0.054285128, 0.13654916, 0.011100754, 0.099480666, 0.102108344, 0.08416747, -0.0016986355, 0.045574762}, 
{0.05226487, 0.07938, -0.10086697, -0.076204054, 0.08330611, -0.07251653, -0.07868815, 0.0013235376, 0.03242008, -0.090668336, 0.062065385, -0.0834873, 0.0135281, 0.055205643, 0.074678056, 0.07047107, -0.06462659, -0.05008087, 0.074947305, -0.04002924, 1.7783641e-05, -0.0071670297, 0.081676975, -0.10886219, -0.100259915, -0.08286987, 0.028024688, 0.066688776, -0.057752926, -0.116856486, 0.021778807, -0.06557949, 0.058578342, -0.10996963, 0.064470604, 0.023355462, -0.08371502, 0.028726155, -0.07891158, -0.091489635, 0.07262334, -0.10452533, 0.0046755252, -0.087770164, 0.034353852, -0.11003117, 0.049718738, 0.024420235, -0.034883644, -0.062649235, -0.0035743557, -0.06578797, -0.005158955, 0.06171002, -0.029507749, -0.070547685, -0.028021269, -0.07507647, 0.11408242, -0.058812626, 0.012566381, 0.09155255, -0.07005302, -0.082362294, -0.0018560305, 0.018915106, -0.049845383, -0.007674541, 0.030232985, -0.09324956, -0.07884682, -0.01568811, 0.033451125, -0.042984433, -0.0553205, -0.07308832, -0.038490217, -0.023033569, -0.08470128, -0.0040718857, 0.04754746, 0.113934204, 0.04923609, -0.0753868, -0.092746586, 0.05100795, -0.074672006, -0.0060620545, 0.014794454, -0.062437266, -0.041187562, -0.048436683, 0.075731896, 0.0010120452, -0.07522377, -0.10230531, -0.11672143, -0.07986062, -0.0055847242, 0.077753186, 0.08504745, 0.08362794, -0.11283967, -0.048369758, -0.01725313, 0.1040044, -0.00679373, -0.021488039, 0.08636447, -0.07034197, 0.0046022907, -0.011879176, -0.100001514, 0.102601126, 0.088899165, 0.013339088, -0.09523012, 0.042437106, -0.019926796, -0.073907696, 0.019589018, 0.03545485, 0.0199216, -0.0026337628, -0.08041336, 0.0016696518, 0.020083025, 0.039335184}, 
{0.06867406, -0.08873879, 0.056106977, -0.07506609, -0.08349204, 0.116610944, 0.065208524, -0.043810576, 0.10691358, 0.00993486, 0.12251164, -0.12342609, 0.016419973, 0.0931857, 0.10133786, -0.026603457, 0.029779732, -0.075928405, 0.013526319, -0.025494691, -0.004886676, -0.075787656, -0.010708686, 0.102197245, 0.10253643, 0.08560281, -0.003480643, 0.068291366, -0.11729421, -0.0041020797, -0.016840845, 0.03691805, -0.005750306, -0.01214577, 0.0076799653, -0.08909938, 0.036606174, 0.049162067, -0.017498728, 0.11954402, 0.017955303, -0.060546562, 0.07346653, 0.06421562, 0.010043129, 0.01037812, 0.009895876, 0.07608827, -0.04007701, 0.005551055, -0.005440797, 0.050979003, 0.13545625, 0.10991306, 0.068452716, 0.015127867, -0.045658518, -0.10319178, 0.019001829, -0.072719, -0.019586781, -0.030206254, -0.096321695, 0.11042813, -0.11523529, 0.013817301, -0.07841493, -0.020179344, 0.10440884, 0.03396837, 0.027712286, -0.009518819, 0.06981301, 0.061468534, 0.036013454, 0.07919338, -0.07215483, -0.04928991, 0.11029155, -0.033423483, 0.017170236, 0.018273106, 0.04970535, 0.033377737, 0.044415224, -0.010680372, -0.026994927, 0.05464688, -0.07647383, -0.06850706, 0.035485707, 0.0030068324, 0.024313755, -0.015867667, 0.0253257, 0.049024977, -0.09264566, -0.10251399, 0.09256798, -0.10197864, 0.03784372, -0.1173563, 0.055285655, 0.0064504826, -0.03521771, -0.06223887, 0.0510886, -0.025338877, 0.09093753, -0.034118786, -0.0349952, -0.08369726, -0.07073144, -0.027904216, 0.0691835, -0.01687623, 0.06423955, -0.025177471, -0.10663667, -0.09510178, -0.09812348, -0.035111357, 0.009767219, 0.036959313, 0.057573155, 0.06635289, -0.10394502, 0.07801969}, 
{-0.122256264, 0.03590785, -0.093195334, -0.03813225, 0.039653942, 0.08258249, 0.06460434, 0.08540561, -0.03368758, 0.092523165, -0.0683865, -0.06963831, -0.05013025, 0.1386129, -0.087479934, -0.054754175, 0.0795722, 0.11483512, -0.11935484, 0.04476202, -0.02302979, 0.07690689, 0.0790183, -0.020335257, -0.023723003, -0.00018238861, -0.055988453, -0.10958767, -0.011267317, -0.020379275, -0.035842687, 0.047320418, -0.06669459, 0.02157208, -0.012497067, -0.11262524, -0.0413749, 0.07396583, -0.1227694, -0.05748398, 0.04620719, 0.0017130896, -0.1308207, 0.05811975, -0.10207238, 0.07832175, -0.005299054, 0.03509852, -0.02689875, -0.08620676, 0.053626683, 0.063839465, 0.07180403, -0.018979954, -0.085206, 0.01815258, 0.095297076, 0.02058526, -0.050619744, 0.008094221, 0.07890022, -0.10651104, -0.09224481, 0.06799674, -0.0539202, -0.0002269645, -0.11458776, 0.072414555, 0.067253925, 0.033176936, -0.071368866, -0.094358526, -0.010229235, -0.06629835, 0.010493495, -0.08623482, -0.06554265, -0.030750727, 0.044476625, 0.046810776, -0.10008702, -0.021682478, 0.018522102, 0.0555569, 0.09717106, 0.04853067, 0.12893616, 0.028421452, -0.08989631, 0.008792579, 0.091762744, 0.011638405, -0.03432979, 0.10041788, 0.001005508, 0.009554828, 0.09703874, 0.0713869, -0.028739117, -0.109547526, 0.026590228, -0.08982433, 0.09729664, -0.12863205, -0.079947665, -0.07184325, -0.11391141, -0.07456189, 0.09737568, -0.15539971, -0.017139971, 0.03510052, 0.099385224, -0.0021120494, -0.096313566, 0.01855116, -0.10684836, -0.031421214, -0.05688824, -0.09806595, 0.08633171, 0.10471234, -0.011564128, 0.048263166, 0.098991394, 0.1292315, -0.028325312, -0.04287387}, 
{-0.116912544, 0.010277731, -0.09765924, 0.028674513, -0.06800361, 0.08109714, 0.11410925, 0.06381793, 0.059201036, 0.047986384, -0.11153276, -0.07910135, -0.075619236, 0.004504721, 0.02227319, 0.01307826, -0.07211355, -0.08234708, -0.10997484, 0.0884991, 0.012694976, 0.023226019, -0.097450696, -0.00022001565, 0.029846178, 0.04846087, 0.08028431, -0.0680617, -0.04491796, -0.116159946, -0.114844024, 0.12653613, 0.010269299, 0.018774759, 0.056897763, -0.019179242, 0.13378496, 0.043561615, -0.11124231, 0.10561516, -0.108489215, 0.067067444, -0.07691434, -0.058746677, 0.06912938, -0.08846235, -0.0670854, -0.119177714, 0.038135026, -0.056352347, -0.105452344, 0.008669227, 0.13678016, 0.053998966, -0.028889641, 0.027471751, 0.074678704, -0.06584992, 0.025995424, 0.056047976, -0.059664566, 0.057970025, -0.09587298, 0.11403749, -0.05410614, 0.020699581, -0.029941939, -0.0952884, -0.09217829, -0.09020929, -0.08040474, -0.04859425, 0.06629764, 0.04688971, -0.0045668124, 0.026478149, 0.12533163, -0.034045164, 0.13762474, 0.017491287, -0.091309726, 0.08616786, -0.075540744, -0.07990864, 0.06232115, 0.055300158, -0.05005038, 0.0042416365, -0.0047608316, 0.117771536, -0.11697703, -0.0011436826, -0.11509882, 0.039641652, -0.027527101, -0.07130259, 0.035698876, -0.102261215, 0.045534313, -0.043975905, -0.06843755, 0.026239678, -0.082235254, -0.029732004, 0.02352427, 0.08142313, 0.048330918, -0.03754411, 0.013820032, -0.0434148, -0.07120657, 0.062271997, -0.019416228, -0.106037684, -0.0455119, -0.014678171, 0.06104158, 0.08547747, 0.040946346, -0.044807155, 0.084427424, 0.12795319, -0.037300088, -0.12095681, 0.058077246, -0.027699461, 0.0057022274, -0.0048526153}, 
{-0.042518537, 0.0488338, -0.15065457, 0.1082968, 0.13886766, 0.040379614, -0.07631266, -0.055788565, 0.029606242, -0.074777395, -0.01176734, -0.12519313, 0.16637577, -0.18774773, 0.20380743, 0.071726315, -0.049487837, -0.09779343, 0.06408775, -0.014569182, 0.046495337, 0.05402844, 0.010464636, -0.017424472, 0.03072986, -0.105175845, -0.10756422, -0.049453363, -0.030138878, 0.07181674, 0.1156463, 0.0068271016, -0.09428938, 0.01007204, -0.12469783, 0.09068558, 0.2052378, -0.01572828, -0.10985642, -0.16237527, -0.118550844, -0.091577016, -0.1615366, 0.027918383, 0.10675095, 0.0022047544, -0.0063944682, 0.00934624, -0.004947633, 0.10644621, -0.030080881, 0.041450024, 0.18381274, -0.0732736, -0.09999657, 0.050072104, 0.028617635, -0.016167121, -0.09147705, 0.028518215, 0.01925853, -0.014441447, 0.0501966, -0.0063063954, 0.073396906, -0.13030078, 0.061436534, -0.029716933, -0.16897869, -0.0112705305, -0.12968464, 0.02791691, 0.007157513, -0.13075241, -0.096212916, -0.09968847, 0.1349815, -0.052373666, 0.043715674, -0.0035246422, -0.032956697, -0.14925994, -0.07688792, -0.026837228, -0.1778843, 0.05844698, 0.19283794, -0.04304979, -0.04912646, 0.025814846, -0.01103304, 0.017914804, -0.18759672, 0.06004388, 0.11876024, -0.06601523, -0.12159911, -0.06701843, -0.10890594, 0.04450524, -0.05103913, -0.029624768, -0.10301538, -0.11731165, 0.11119084, -0.09729225, -0.031123772, 0.108334415, 0.019061388, 0.11428089, -0.07874966, -0.1050031, 0.03828015, -0.06502111, -0.081884265, 0.12962969, -0.036672704, 0.0004553795, -0.029954087, -0.07017919, -0.022161257, 0.105258964, -0.03977333, -0.097260535, -0.10772013, -0.13951817, -0.115181096, -0.0037703374}, 
{-0.04046191, -0.08192611, 0.1644108, -0.06684245, -0.048870318, -0.01922793, 0.00012423843, 0.09694177, 0.016498234, -0.0239297, 0.05118722, -0.012166785, -0.10600473, 0.119684115, -0.025822809, 0.08130191, 0.051479846, 0.032718178, 0.070073344, -0.11844595, 0.026849007, -0.0106738135, 0.063292675, -0.09217024, 0.08728595, 0.15299423, 0.059087127, -0.008988343, -0.10463588, 0.037208002, 0.020655692, -0.15507664, -0.024273433, 0.06771602, -0.052563082, -0.019286104, -0.10002192, -0.1453718, 0.069940545, 0.1713995, -0.046793543, 0.036380127, 0.1945945, 0.07492148, 0.032289773, 0.0015277894, 0.030774415, -0.0025126075, -0.08678465, -0.11679013, 0.04516178, -0.08294183, -0.18558867, 0.10404882, -0.015853569, 0.03680983, 0.20068873, 0.03750757, -0.018358534, -0.03762141, 0.11975914, 0.033132125, -0.21130863, 0.08097781, -0.006975608, 0.068583995, 0.050614983, 0.007138128, 0.20644136, -0.06391327, 0.12492548, -0.056474946, 0.08398369, 0.13769756, -0.12737972, -0.083479054, -0.019360792, -0.12530833, -0.15130256, 0.11154567, -0.03083194, 0.08336477, -0.04956495, -0.09619996, 0.07049854, -0.07870027, -0.12006405, 0.01776218, 0.033977747, 0.072644725, 0.030383563, 0.15638994, 0.036858592, 0.005249674, 0.056966215, -0.094141744, 0.21193857, -0.06201146, 0.06941353, -0.10145107, -0.10110226, 0.110471025, 0.14251815, 0.059016097, 0.060623378, 0.06896222, -0.11058745, 0.019743616, 0.0317858, 0.034072757, 0.023488909, -0.11121755, -0.16906871, 0.15399, -0.098915376, -0.022178508, -0.10385311, 0.023142368, -0.10392518, -0.10402922, -0.03369952, 0.06876858, -0.062375102, 0.026012346, 0.0039625987, 0.12760353, -0.06365423, 0.19116972}, 
{0.06852203, 0.11399141, -0.08607908, -0.099311486, 0.14807183, -0.07913743, -0.017138682, 0.103411175, -0.16342345, 0.0099131595, -0.13733622, -0.03288181, 0.18297838, -0.17363322, 0.18780191, -0.019515047, -0.045222387, -0.19751929, 0.12717043, 0.084382355, 0.11213937, -0.0974109, -0.08986429, 0.08772065, -0.037565038, -0.17083298, -0.03782656, 0.07583684, -0.1185355, -0.08940415, -0.032387234, 0.085598804, -0.055788532, -0.10971206, -0.12714678, 0.10480214, 0.075771354, 0.19288063, 0.096077405, -0.09172238, 0.020849854, -0.10294962, -0.07856105, 0.08016308, -0.07501392, 0.004738011, 0.114252985, -0.023655904, 0.0014601978, -0.004318878, 0.08361704, -0.033374906, 0.15489858, 0.08888873, 0.046075538, 0.057785273, 0.004220053, -0.08463662, -0.09815406, -0.09904806, 0.04079902, 0.08679522, 0.064392634, -0.09093673, -0.101260215, 0.022290489, 0.012228161, -0.04924297, -0.15056811, 0.024924487, -0.029064842, 0.07852915, -0.10142698, 0.026347263, -0.123479635, 0.02642389, 0.118022904, 0.007591792, 0.0071361405, -0.035791684, -0.003785789, -0.0038087666, -0.003931539, -0.032417446, -0.063524246, -0.04416207, 0.20232448, -0.10270455, 0.04828036, 0.024667367, -0.08037932, 0.10267369, -0.19811757, 0.048957493, -0.031544335, 0.046464395, 0.08798782, 0.07661499, 0.11379264, 0.021952525, -0.11783132, -0.012797989, 0.026386326, 0.049015563, 0.097375914, -0.051127173, -0.046119004, 0.008538199, 0.10249225, 0.18458101, -0.08756397, 0.0032106042, -0.0012397364, -0.07186985, 0.10803431, 0.0648449, 0.10524425, 0.05616179, -0.08553392, -0.062438224, -0.22023824, 0.06772139, 0.055205643, -0.108210854, -0.09392016, 0.023136804, 0.045435816, -0.026481958}, 
{0.06946559, -0.12149285, 0.17939702, -0.016993515, -0.11302882, -0.0018470958, -0.11214326, 0.05310381, -0.07364647, -0.098165564, 0.07615601, 0.073078655, -0.12682113, 0.18007426, -0.15253752, -0.09833671, 0.10456687, 0.18483365, 0.10946805, -0.28287232, 0.014798035, 0.04870295, 0.0063653844, -0.073436484, 0.010170392, 0.09862416, -0.11357827, 0.10315664, 0.046055924, 0.025330713, -0.016406938, -0.120324895, -0.038675934, 0.19892378, -0.030430026, -0.09966159, -0.16108146, -0.05228838, 0.092961706, 0.1937895, -0.10397397, 0.08974853, 0.13380153, -0.09306479, 0.09373827, 0.0025221796, 0.021343946, -0.11652807, 0.04079517, 0.017262354, -0.048703287, -0.094269276, -0.1534723, -0.0054568592, 0.04751295, -0.033083193, 0.2865946, -0.02606452, -0.0055518947, 0.0954331, 0.07099741, -0.08211885, -0.059992734, 0.15194044, 0.012894438, 0.18154792, 0.047581732, 0.013982424, 0.024971878, 0.027799556, 0.21473758, 0.041754983, -0.09608303, 0.12746853, -0.12648273, -0.0385175, -0.14440922, 0.055289894, -0.0746004, 0.0736747, 0.06673132, -0.05870113, 0.08196585, -0.09064707, 0.24120991, 0.08166939, -0.06597084, 0.10163188, -0.11728383, -0.10172881, -0.0727489, 0.19957954, 0.14002655, 0.0011283164, -0.03812094, -0.08704646, 0.021024246, -0.07824302, -0.021716468, 0.107604876, 0.060010746, -0.09282823, 0.17656969, 0.003024796, 0.00614278, -0.009805709, -0.088372335, 0.05105246, -0.023260826, 0.024548136, -0.107544266, 0.08487448, -0.13630146, 0.043325868, -0.11594546, 0.037874896, 0.019819811, 0.059993193, 0.05803407, -0.043517966, 0.12858024, -0.111707434, 0.10551827, 0.09310289, -0.07950944, 0.08438453, -0.024716586, 0.08856722}, 
{0.084511586, 0.08464538, -0.1254293, -0.014158547, -0.08655689, -0.01473923, 0.06945941, 0.057353463, -0.1288453, -0.050803337, -0.026693203, 0.06752212, -0.047680832, -0.008730874, 0.107158184, -0.0068149315, -0.018397197, 0.045762204, 0.017432375, -0.070488855, 0.01485529, -0.048747413, -0.083771646, 0.103888184, 0.023069467, -0.04682729, 0.04284191, -0.057928406, 0.05078829, 0.08482124, -0.09803511, -0.15552567, -0.110700406, -0.063314416, -0.078441374, -0.021505592, -0.007471016, 0.13045026, -0.07116692, -0.053921282, 0.030401334, 0.09187475, 0.1946065, -0.044603903, -0.09884202, 0.029374572, -0.08481939, 0.051248822, -0.114223525, 0.07424463, 0.04486465, -0.060855027, -0.08364944, -0.0016955703, 0.049918056, -0.021924458, 0.17189008, 0.07137878, 0.11363845, -0.07762283, -0.03269449, 0.07726038, 0.04588054, -0.0019769128, 0.055122044, -0.097606346, 0.039950654, 0.034508787, 0.026981793, 0.084847696, -0.020037415, -0.061645508, 0.061522763, 0.03118211, 0.10859039, 0.06315736, -0.05064059, -0.050387993, -0.094662815, -0.06825403, 0.0016891286, 0.060827896, 0.053454775, -0.065015584, 0.09033683, -0.012065491, 0.0709839, -0.088536575, 0.05710472, -0.115135, -0.0023020464, 0.16151804, -0.1328937, -0.05354567, 0.118945554, -0.06521494, -0.120060675, -0.0068189576, -0.03523469, 0.008574933, -0.09328435, 0.076143086, -0.053194612, -0.09913326, 0.088107914, 0.103920594, -0.106222555, 0.0387681, 0.06629311, 0.059343327, 0.082737476, -0.038262904, -0.031790473, 0.022595305, -0.0982431, -0.09766085, 0.049305215, -0.07880922, 0.013992107, -0.032275222, 0.07151289, -0.2390127, 0.08148956, -0.10019877, -0.10920046, 0.009234007, -0.10424979, 0.07168775}, 
{0.010755164, 0.114461735, -0.09720379, 0.059767798, -0.028446546, 0.041818216, 0.056701645, -0.045183584, 0.017396865, -0.0520735, -0.07424999, -0.12332783, -0.037504297, -0.10121306, -0.007543248, 0.10234213, 0.0061980784, -0.0031442426, -0.08272482, 0.09729472, -0.02691089, 0.047416605, -0.05538192, 0.07449491, 0.0768395, -0.05232944, -0.09433267, -0.1158268, -0.0034227658, -0.11624111, 0.0060305744, 0.13469276, 0.014698431, 0.059914917, 0.024324518, -0.03367188, 0.008341156, -0.02367604, -0.10653261, -0.02375709, -0.0584109, 0.11449768, -0.017207272, -0.12102436, -0.03908559, -0.0038177355, 0.022707656, -0.11951104, 0.03906919, 0.009360924, -0.0387138, -0.03870637, 0.11780487, -0.058329403, 0.098272905, -0.056130387, -0.17434572, -0.03224185, -0.039824326, 0.04838544, 0.008000721, -0.04674457, 0.09362462, 0.06688529, -0.080691144, 0.0013241369, 0.07976115, 0.08484229, 0.045218367, -0.0961887, -0.122165866, 0.03388506, 0.07783818, -0.13398339, 0.05899706, 0.07373935, 0.14577074, 0.021781256, 0.079120874, -0.08951077, 0.0477411, 0.0433813, -0.030227602, 0.065837756, -0.0076581053, -0.122815624, 0.16827936, -0.16293728, -0.051653735, -0.09929823, 0.017824672, 0.06868689, -0.14445248, -0.028685162, 0.08612394, -0.06794072, -0.14090505, 0.092548564, -0.09503172, 0.03344308, 0.10679753, -0.116509154, 0.050403334, -0.09662787, 0.07910897, 0.013750926, 0.01890646, 0.059361253, -0.025046695, -0.04065092, 0.09281205, -0.010232598, -0.022714298, -0.056914277, -0.025171056, 0.17049459, 0.0052480847, 0.028772727, 0.0026663907, -0.11851395, 0.0008099293, -0.08544179, -0.029665917, -0.11529978, 0.029551148, 0.02822314, 0.021756262, -0.07457087}, 
{-0.11698755, -0.051562566, -0.0022417495, -0.028358929, -0.046504837, -0.05134765, -0.014801793, -0.04602283, -0.055388328, -0.116156116, -0.06883583, -0.022119824, 0.04516821, 0.08291534, 0.09356914, 0.092925884, 0.058211163, -0.081058435, 0.034257896, -0.018734744, -0.026828328, 0.072484456, 0.052158244, -0.04658942, 0.023979038, -0.11523315, -0.11380742, 0.1045157, 0.053136244, 0.054321077, -0.06287484, -0.010039282, 0.011163667, -0.037261736, 0.06615454, 0.06602949, -0.0022837934, -0.07226934, -0.023107098, 0.052732993, 0.026517928, -0.0536775, -0.023547007, -0.03824667, 0.115061, 0.0066924733, -0.03933776, -0.06996044, -0.04812748, -0.01532913, 0.027487598, 0.05818747, 0.063680306, -0.0131288655, -0.023754776, -0.051701665, 0.03967237, 0.104615, -0.015283134, -0.09981629, -0.051876944, 0.060919084, 0.11528794, -0.040205296, -0.07512125, -0.01589427, -0.08367765, 0.050860867, -0.116536796, -0.047464553, 0.09730567, -0.07273396, 0.04229932, -0.08817449, 0.010177542, 0.021844525, 0.029472187, -0.1254875, 0.074389204, -0.035109375, 0.05181986, 0.09503373, -0.10998487, -0.117685124, -0.11487258, -0.060569536, -0.052770566, 0.098194025, -0.102544256, 0.0049479157, 0.07584018, -0.07013766, 0.063715406, -0.102229804, -0.11450899, -0.11990066, 0.08070971, -0.06850589, -0.053423464, -0.0024384856, -0.063278995, -0.11501053, 0.11522837, 0.088787444, 0.016324937, 0.10642125, 0.09087843, -0.031187998, -0.03256126, -0.11072633, 0.11536309, 0.07025257, -0.035046812, 0.055201616, 0.09325363, 0.043094043, -0.051076666, 0.0730297, -0.0017216479, 0.06929843, 0.09438638, 0.09368374, -0.0022053793, -0.017648544, 0.065874934, 0.044388495, -0.103690095, -0.0026643327}, 
{0.013863505, -0.04285038, -0.004208001, -0.03899952, 0.08916343, 0.09583382, -0.08356352, 0.10663297, 0.11604657, -0.090670146, 0.018407729, 0.10568198, 0.087748, -0.09753534, 0.07206721, -0.053690486, -0.08678841, -0.10701454, 0.12276454, -0.055185325, 0.010435003, 0.075513184, -0.0100691235, -0.088285066, -0.039800785, -0.05282893, 0.117697, 0.030535355, -0.06541445, 0.060524557, -0.110370845, -0.08343634, 0.09920578, -0.052743115, -0.10522149, -0.07995699, 0.049910247, -0.011732864, -0.11862023, -0.106472015, -0.034721754, -0.04919283, 0.036619294, 0.06651991, -0.008480564, 0.060388174, 0.042905763, -0.032414876, 0.028917512, 0.06786311, -0.022702724, -0.05852698, -0.03139269, -0.009513596, 0.062288493, -0.08791661, 0.0021762082, -0.0074296696, 0.09792971, -0.054301158, -0.044894945, -0.05392863, 0.05196987, 0.0963606, 0.0038849646, -0.035965674, -0.008915417, 0.045980673, 0.12145857, -0.0055468394, -0.08848297, 0.11177095, -0.028978013, 0.08844824, 0.09002029, -0.017150681, -0.10243403, 0.05523053, 0.039061833, 0.0031479518, 0.068554476, 0.05237735, -0.036124967, -0.007338302, -0.021886643, -0.10164304, 0.03810955, -0.059781317, -0.10194534, 0.023957923, -0.09772762, 0.091057345, 0.0033405954, -0.0056539383, 0.07827231, 0.040153585, 0.096403725, -0.057031557, -0.074678764, 0.045794934, 0.09781724, -0.042781956, -0.07193801, -0.06941445, -0.09880543, 0.014067292, 0.019439697, 0.059624676, 0.102954805, -0.041386697, -0.062297422, 0.06663531, -0.09522722, -0.02285199, 0.03608656, -0.06766081, 0.102904916, -0.11327983, 0.019348409, 0.07143764, 0.04380288, -0.0105824135, 0.07569879, 0.09928539, -0.069694966, -0.023008872, -0.03081894, -0.1276841}, 
{-0.030344047, 0.0055341744, 0.07061957, -0.06263019, -0.015595277, -0.08641684, 0.11749826, 0.072731, 0.080782875, 0.08273907, 0.06696205, 0.06008859, -0.0739792, 0.10181286, -0.061069302, -0.04866556, -0.055932075, -0.08648668, -0.049453624, -0.0740525, 0.10004098, -0.063052416, 0.06482545, -0.047241427, -0.06766074, -0.05922112, 0.043181643, -0.01472193, 0.02260067, -0.12653553, 0.10663773, 0.07712693, 0.015837029, -0.027982185, 0.013359244, 0.017208125, -0.042274967, 0.09386898, 0.061998546, 0.016111318, -0.06393418, -0.05481358, -0.028417232, 0.10432491, -0.10101026, 0.032923397, 0.10682887, 0.04666609, 0.077154495, 0.029933944, 0.04235965, 0.02575463, 0.10671676, -0.0930033, -0.08717161, 0.018598318, -0.049769823, 0.110135205, -0.09291261, -0.08851957, 0.066475116, 0.107123084, -0.021999374, -0.0100767035, -0.11160033, 0.029634919, 0.10067299, -0.09757756, 0.09265234, -0.1223354, 0.08722861, -0.04389589, -0.058006547, -0.1118747, 0.00058010156, -0.107562296, -0.09126753, -0.083929375, 0.011889545, -0.10137283, 0.110056564, -0.050280247, -0.00487483, 0.10474856, 0.0504434, -0.039681695, 0.007361804, -0.0023132914, 0.005376935, 0.108168185, -0.11113357, -0.0069001094, 0.035572547, 0.074107274, 0.09054351, -0.09513153, -0.10353019, -0.037991486, 0.103959054, 0.11836505, -0.09882845, -0.0013286918, -0.057636674, 0.04900292, -0.11665312, 0.089256555, -0.07778197, -0.11081363, 0.10004568, -0.07937274, -0.08931114, 0.008257285, 0.080394685, 0.0105368765, -0.11298708, 0.020720027, 0.118270695, -0.05408357, -0.12430614, -0.04825268, 0.10541053, 0.048321865, -0.0104555935, 0.027579142, -0.06513144, 0.00253358, 0.041688517, 0.044412713}, 
{-0.0885044, 0.105362214, 0.073630035, 0.042435065, 0.07066933, -0.088430665, -0.10159564, 0.03903863, -0.0435511, -0.06693155, 0.075633146, -0.044919133, -0.075151935, 0.117911786, 0.11811535, 0.0030693703, -0.0024773404, -0.016458677, 0.083917715, 0.023316996, 0.06869178, -0.103413336, -0.053943194, -0.048980318, -0.035444014, -0.09949019, -0.09499003, 0.04746577, -0.09329693, -0.08840406, 0.05592437, -0.018898506, -0.0025868043, -0.035814088, 0.008639311, -0.06452401, -0.051116966, -0.044048198, 0.10716994, 0.0002228558, 0.077645764, 0.11080237, 0.114814356, 0.052898858, -0.10000418, -0.05325213, 0.10709195, -0.043523908, 0.002977602, -0.054222763, 0.11115644, -0.06733551, -0.018683003, 0.09796679, -0.074922085, -0.020649396, -0.112203725, 0.008132577, -0.03734952, 0.010090202, 0.0010431184, 0.0033256246, 0.07833634, -0.073113985, -0.019785464, -0.086969, -0.112730294, 0.038842775, -0.0060342355, 0.031648263, -0.07379615, -0.12073621, -0.018137153, -0.007882584, -0.0140154315, 0.0038897675, -0.022095755, 0.037954424, 0.074373, 0.043160878, 0.11621982, -0.11601266, 0.11276631, -0.11627296, -0.03418899, 0.008893437, 0.13146052, 0.016074402, -0.026392773, 0.106095314, 0.042484064, 0.1006154, -0.052565474, -0.0154380575, 0.012317434, -0.036489286, 0.0037628561, 0.04296057, 0.0022582412, -0.07014227, -0.115796275, -0.042845726, 0.008161961, 0.031450443, -0.055185832, 0.029727995, 0.04926069, 0.05596284, 0.10960583, -0.08376636, -0.10665512, -0.11155883, 0.04410691, -0.042797245, -0.031912446, -0.11697862, 0.1151876, 0.08761892, 0.07415847, 0.056520276, 0.03433186, -0.06241545, -0.04384671, 0.08016066, 0.022891745, -0.06545514, -0.018912539, 0.01884175}, 
{0.09085809, 0.07165969, 0.058196448, -0.06415087, 0.16169198, -0.055430904, -0.09936185, -0.029849337, -0.037055, 0.029106166, -0.15389115, 0.08289303, -0.036144584, 0.044492126, 0.066144675, -0.020136839, 0.08018461, 0.05375893, 0.020300964, -0.010959958, 0.042548314, -0.08775461, -0.010649551, 0.042344496, 0.027796395, 0.00966312, 0.04680738, -0.012216128, 0.011466179, 0.06659558, 0.06632078, -0.026933393, -0.03363329, -0.0719229, 0.061022375, 0.071986176, -0.05111068, 0.15319036, -0.020488054, 0.05652276, 0.09437327, -0.03396538, -0.07762761, -0.075486556, 0.016433626, -0.029183973, -0.0043215454, 0.051709395, 0.058203563, 0.029115304, 0.1039748, 0.09812097, 0.09813151, 0.063074954, 0.058090463, 0.11639714, -0.0592318, -0.08117978, 0.09577549, -0.11831691, -0.015345224, -0.07383743, -0.0005165418, -0.1352453, -0.12731181, -0.01900746, 0.06153822, -0.012325049, 0.07637639, -0.060678314, -0.14710638, 0.0768606, 0.008750608, -0.12629566, -0.05854294, -0.06656281, 0.12510222, 0.027578712, 0.03822068, 0.0666398, 0.025153622, -0.12392052, -0.060131177, -0.07899282, -0.10043699, 0.01739802, 0.1818457, 0.012500422, -0.013187967, 0.086308286, -0.023498572, -0.0028660009, -0.1511339, 0.012843583, -0.059171483, -0.11527441, 0.0264101, -0.024875328, 0.078635186, 0.05118917, 0.07041544, 0.006669119, 0.05364426, -0.07973382, -0.10819584, -0.078890964, 0.06828931, -0.08156893, -0.045047276, 0.13307846, -0.044906333, -0.077034906, 0.055433605, -0.1284703, 0.028233543, -0.0044851457, 0.025103316, -0.029312812, -0.038228147, -0.011734041, -0.11062838, 0.007254935, -0.104785204, 0.05584624, -0.089765996, -0.09879156, 0.10403916, -0.012322661}, 
{-0.05937969, 0.09536509, 0.06467504, 0.10011184, 0.06303021, -0.008593984, -0.101397015, -0.10260633, 0.040859904, -0.09489437, -0.1321983, -0.023069834, -0.02695341, 0.007100658, -0.005842823, -0.001020656, 0.065324634, 0.0030745002, 0.059955705, 0.11037249, -0.06759813, 0.03087844, 0.0010584901, 0.049614623, 0.06315118, -0.12068566, 0.007160291, 0.056813225, 0.087556355, 0.063439585, 0.06290662, 0.045042694, 0.01890415, 0.03328302, -0.06963648, -0.05222484, 0.16897216, 0.08234382, -0.042413715, 0.025880354, -0.08583842, -0.08039844, -0.09008274, 0.075937755, -0.06160453, -0.022894256, -0.011488564, 0.07366502, -0.026805852, -0.03882958, 0.0956533, 0.07227041, 0.16712299, -0.023453636, -0.075455815, 0.03624241, -0.10667763, 0.024628356, -0.0983119, 0.032665804, 0.025432419, 0.033479698, -0.03660111, 0.07049277, 0.06800901, -0.12850836, 0.10761024, -0.025483673, 0.0104653975, 0.00484245, -0.1119307, 0.09115659, 0.04987807, 0.022574581, 0.09809614, 0.10938906, 0.051600456, 0.07810867, 0.06357346, -0.050468, -0.039000265, -0.08086363, -0.058516797, 0.031237148, -0.14996937, 0.027560286, 0.116613865, -0.010867738, 0.021269992, 0.04719138, -0.085076705, 0.03370387, 0.036672547, -0.08183466, 0.029190868, 0.020540021, 0.044366926, -0.0024416596, 0.08255236, -0.02208709, -0.02622421, -0.07496037, -0.108273365, 0.077879824, 0.0856076, 0.05342993, 0.10223997, 0.029935021, -0.07574972, 0.057372678, -0.07727141, 0.09006822, 0.028812213, -0.055869225, -0.0033383965, 0.04184004, -0.026285455, 0.08047329, 0.04480831, 0.034060657, -0.16698416, 0.06522995, 0.047131106, -0.070732966, -0.025808655, -0.031339232, 0.09917514, -0.15843032}, 
{-0.060059484, 0.05362626, 0.11611355, 0.07392271, 0.0680479, -0.07328147, 0.08450389, 0.007989119, -0.011344967, 0.017598018, 0.118581854, 0.062212262, -0.067578815, 0.0842681, -0.080258146, 0.07158986, 0.0016741231, -0.03336292, 0.075544044, 0.05432779, 0.0022255988, -0.023087068, 0.009518549, -0.07904057, 0.040130213, 0.02890457, 0.038951904, -0.010309249, -0.060031738, -0.109472804, 0.006636396, -0.029413346, -0.022552498, -0.035674002, -0.01679659, -0.006518116, 0.1285946, 0.11705405, 0.04472792, 0.022105508, -0.055060998, -0.077893555, -0.09093533, -0.11343862, 0.058877543, 0.08531875, 0.02712515, 0.04686166, 0.034790087, -0.067169495, -0.115377136, 0.095938444, -0.0023340331, -0.040148783, -0.03069035, 0.023955956, -0.050574925, 0.10723979, 0.0985309, 0.08259924, 0.08237003, -0.09693111, 0.090492435, 0.07960541, -0.060140084, 0.101686366, -0.102467634, -0.009851238, -0.059129342, 0.08813005, -0.0047996705, -0.09250472, 0.07096571, -0.1356143, -0.06610235, -0.07253805, 0.10088426, 0.07984052, 0.037990168, 0.041448884, -0.050846197, 0.04440725, -0.043597892, 0.034769762, 0.06928446, 0.020165754, -0.030759724, 0.086589076, -0.10770135, -0.104838945, -0.12107161, 0.03957247, 0.061392277, -0.11504948, -0.094574854, -0.0875715, 0.11160781, -0.06409171, -0.02904085, 0.061599, -0.010728039, 0.079099745, -0.106936574, 0.010584895, 0.046883717, 0.041966915, -0.06627013, -0.0061813616, -0.044358294, 0.088296995, 0.056551784, 0.02265349, 0.05597791, 0.109250195, 0.015148744, 0.07460065, -0.012344383, -0.09800679, -0.06326125, 0.014556244, -0.007204537, 0.05309274, 0.041835487, 0.058439966, 0.0005105287, 0.06526073, -0.07656019, 0.050703682}, 
{0.09361385, -0.10348059, -0.044534065, 0.005394891, 0.015238375, -0.04895246, -0.11741866, 0.011337844, 0.055297606, -0.058687348, -0.0995482, -0.044625264, 0.04443799, 0.097202465, 0.099560596, -0.08554805, 0.08065012, 0.037291724, 0.07604643, -0.030927468, 0.082236975, -0.0010960249, 0.02724915, -0.00010677427, -0.039728668, 0.011737674, -0.10903018, -0.016350128, -0.040526833, -0.11884096, 0.027649745, 0.074645676, 0.036145166, -0.0029791377, 0.048841994, -0.017185923, 0.10390109, 0.10510859, -0.0828967, -0.120784655, 0.034942523, -0.035826452, 0.00068334857, -0.04070245, 0.041408345, -0.015760804, -0.052267373, -0.12103467, 0.08461558, -0.08047013, 0.06319227, 0.028130516, 0.09752801, -0.033992168, 0.115895584, -0.08311787, 0.06393317, 0.11976008, 0.037419014, -0.0784263, 0.040803608, 0.04699163, 0.0726951, 0.09904693, 0.093888715, -0.040064853, 0.064686835, 0.07971695, 0.016094318, 0.030076476, 0.02893001, -0.098307095, -0.07524467, -0.031681072, -0.09606634, -0.101090625, 0.031700592, -0.037259627, -0.016503338, 0.07966224, -0.051009603, 0.08821729, -0.0768981, -0.12274011, 0.013474522, 0.058062468, -0.04980319, -0.055987872, -0.026965864, -0.011110522, 0.108013585, -0.055931553, -0.0024028234, 0.011442617, -0.11426034, 0.020065632, -0.09438814, 0.06368409, -0.0958488, -0.062942296, 0.03240049, -0.08550109, 0.053273838, 0.029538538, -0.07819869, -0.031426392, -0.05462703, -0.0042532347, 0.109418064, 0.06584537, 0.027635142, -0.115875795, -0.046618655, -0.062223095, 0.07128546, 0.068682045, 0.108431116, -0.092601165, -0.042964377, 0.07915715, 0.10614052, -0.053685665, 0.085588545, 0.10528769, -0.0644013, -0.086684704, 0.028687716, 0.04526159}, 
{-0.025816554, 0.10302027, 0.04977909, -0.058298804, 0.04231272, -0.086922646, -0.016583256, 0.106802754, -0.007851258, 0.0921099, 0.07053099, 0.030765684, 0.023495037, -0.035461657, -0.014307323, -0.0068674, -0.012610726, 0.063023016, 0.08757593, 0.10434499, -0.081826426, -0.021305846, -0.045863163, 0.012396142, 0.03217709, -0.038451817, 0.019769505, 0.090092555, 0.0667914, 0.0898257, 0.10239568, -0.05191718, -0.0038982034, -0.0553773, -0.04613796, -0.05574669, 0.040349893, -0.10346353, 0.09400966, -0.12270426, 0.04916309, 0.115613684, -0.13313325, 0.019827448, -0.03342112, 0.09519539, 0.006440878, -0.08810798, 0.097599745, -0.05793771, 0.011349244, 0.054801866, 0.14067493, 0.035027973, -0.09309764, 0.035703048, -0.099510744, 0.024829011, -0.08554534, 0.091946155, -0.047300767, -0.09261635, -0.054837685, 0.024896977, -0.008731933, 0.012184511, 0.036108255, 0.074025735, -0.05542318, 0.012987668, 0.0946516, -0.12107461, -0.008574792, -0.10717159, 0.04664207, 0.070605144, -0.02010247, 0.048713673, -0.08144813, 0.05065708, -0.06257364, 0.10672101, 0.02725916, -0.038895518, 0.034370072, 0.049565513, 0.10379918, -0.10235962, 0.08759928, -0.102973066, 0.10417915, 0.023876376, 0.102533475, 0.083684124, -0.034232475, -0.0462461, -0.090151675, 0.06931199, -0.09892726, -0.09545518, -0.020810768, 0.05153519, 0.046920758, 0.039717853, -0.017597906, 0.03568025, 0.07144743, -0.060370497, -0.06196382, 0.10683023, 0.00016821921, -0.07540272, -0.03997998, 0.07967824, 0.11395666, 0.010658093, -0.06433962, 0.028245449, 0.11009309, 0.018740954, -0.023869095, -0.08817684, -0.009405702, -0.007942307, -0.050355256, 0.086160585, -0.031769395, -0.09222879}, 
{0.058086526, -0.063513435, -0.058713067, -0.0155640915, 0.0018040575, 0.10586874, -0.113849536, -0.08705798, 0.12933414, 0.09243288, -0.029737221, -0.10553706, -0.0055998927, 0.017243834, -0.08204784, -0.03141536, 0.03729281, 0.10336939, 0.11276137, -0.029134877, -0.05130007, -0.005574552, -0.022755345, -0.060678333, 0.009158508, 0.055347495, -0.105765484, 0.10973576, 0.094161674, 0.07511609, -0.027165413, -0.06130514, -0.012573555, 0.026678484, 0.0005793729, 0.06255891, 0.106742434, 0.006031551, -0.030663474, -0.11778932, -0.08534808, -0.046108387, 0.10823992, -0.0022909322, -0.07678831, 0.02250488, -0.103626676, 0.0549462, -0.11111163, -0.07650232, 0.03331519, -0.11692746, -0.018130826, 0.026089668, 0.028514028, 0.07593654, 0.049932368, -0.03916908, -0.016858863, 0.07614544, 0.061315447, -0.08773976, -0.002268854, 0.07796121, 0.054523796, 0.075658984, -0.09720415, -0.093055144, -0.08947509, -0.02950315, -0.04895559, 0.09525472, -0.033725902, -0.10256081, -0.0841393, -0.0060937004, -0.038421713, 0.09763475, 0.050579432, 0.00580464, 0.04242353, 0.09601561, -0.08568115, 0.025833461, -0.11242494, -0.047965206, -0.023091681, -0.10529609, 0.07858989, -0.02953323, 0.004212199, 0.018816413, 0.08807244, 0.023891559, 0.04220958, -0.1075112, 0.07258034, 0.10445039, 0.050404727, -0.08427207, -0.04424674, 0.05572322, 0.121053636, -0.060751233, -0.0062813386, -0.044276983, 0.09620938, -0.052483667, 0.06682786, -0.040360224, -0.010003559, 0.08849257, -0.077702306, 0.0004839496, 0.042961, -0.085727856, 0.08688399, -0.09377934, -0.09549937, 0.1011623, -0.066432945, -0.025660835, 0.0147806555, 0.09177803, 0.10346696, -0.10462602, -0.101067334, 0.071708255}, 
{-0.0780656, -0.07295952, -0.016695274, 0.07771371, -0.11680585, -0.09665407, -0.012653045, 0.008835949, 0.1187834, -0.015628442, 0.091235384, -0.07408526, 0.024935631, 0.024270397, -0.058804214, -0.08567592, -0.048791192, 0.039040122, -6.006706e-05, -0.06699912, -0.086898856, 0.0820249, 0.07982919, 0.00021257252, -0.11620477, -0.010725924, -0.043310493, -0.10105482, 0.103407234, 0.04002774, -0.07212214, -0.010816498, -0.09810532, -0.07972114, 0.04101959, -0.03734991, 0.005010799, 0.012001584, -0.038763903, -0.03008409, 0.072136804, 0.066071555, -0.008319448, 0.043079134, 0.08443196, 0.064046234, -0.0018608421, -0.09420926, 0.009288303, -0.049110457, -0.0120061245, -0.041507155, -0.073901616, -0.09322493, 0.10365182, -0.08385165, -0.091937006, -0.063037984, -0.01884083, -0.0370685, 0.022261392, -0.086167715, -0.063849404, 0.053018656, 0.0044844076, 0.119232476, 0.0007487312, 0.025638152, -0.10946814, 0.011343256, 0.099689364, -0.10297336, -0.078709446, 0.04707079, 0.11086655, 0.033790134, -0.1277244, 0.008805984, 0.09922658, -0.12615004, 0.08925882, -0.01487379, -0.06031064, 0.06583583, 0.031815425, -0.09987367, 0.08290596, 0.090267956, 0.051753774, -0.06274871, 0.022576375, -0.07601209, 0.08756569, 0.104032405, 0.11565259, -0.0814969, 0.10641124, 0.061484978, 0.08556844, 0.07555795, 0.11177078, 0.06090261, -0.019280815, 0.035846572, -0.013190515, -0.03502667, -0.08592667, 0.087787844, 0.020787025, 0.07481205, -0.07657708, 0.091353655, -0.010535568, 0.110001944, -0.059217326, 0.049545188, -0.025487192, 0.023317859, -0.11844826, 0.027177578, 0.069993936, 0.06792457, 0.11553709, 0.04867944, -0.047358252, 0.04535953, 0.07171358, -0.08709823}, 
{-0.11400163, -0.07391216, -0.102939226, -0.09138268, 0.008562794, 0.017740846, -0.081334256, -0.11754302, 0.07450562, -0.104472116, -0.029910477, -0.06257165, 0.026915818, -0.04799786, -0.033287928, -0.027369717, -0.042453133, -0.09247456, -0.069304325, -0.030347131, -0.05316161, -0.063012056, 0.07315981, 0.103274286, -0.044848576, -0.0031550112, -0.08182874, 0.07101725, 0.070888646, 0.093893096, 0.022351012, -0.038675744, 0.050611198, 0.043187197, -0.046130005, 0.019388845, -0.096106626, -0.020320088, 0.09867278, 0.055254575, -0.020671554, 0.025648832, -0.012789728, 0.012668655, -0.062127225, 0.004696702, -0.05205878, -0.029225785, 0.062034875, -0.09636448, -0.10311386, -0.11697954, 0.093096204, 0.009496558, 0.048389107, 0.061056226, -0.13728201, 0.141849, 0.057192516, 0.036828578, 0.026122347, -0.0641697, 0.057931054, 0.05976332, 0.012420716, 0.06885687, -0.017776147, 0.0030121612, 0.008630239, 0.038627166, -0.020499557, -0.063582264, -0.08654528, 0.045039393, 0.08116063, 0.003855122, 0.08071419, 0.08053856, 0.09718635, -0.04345554, -0.054089613, 0.06359463, 0.10464668, -0.01296869, 0.018354693, -0.09822818, -0.0067726932, -0.03562949, -0.08497791, -0.11441158, -0.076140665, -0.04549888, -0.046860516, -0.016580252, 0.098213494, -0.047025684, 0.14201926, 0.09597778, -0.086297214, -0.002872102, -0.048541658, -0.035232313, -0.02939699, -0.016978057, 0.08507374, 0.004322663, -0.034445964, -0.0027255446, -0.05556689, 0.030030591, -0.07263954, 0.0112905055, 0.016811859, -0.052103087, -0.10297129, 0.016673634, -0.0023923889, -0.051326662, 0.07263754, -0.080296926, 0.00065068185, 0.07239708, 0.013060316, -0.10791626, 0.075202495, 0.08943742, -0.10069865, -0.11170741}, 
{-0.04344602, -0.09022287, -0.08702352, -0.099720456, 0.05701966, 0.002666548, 0.023889974, -0.04064663, 0.09499178, 0.08297802, -0.0883976, 0.11187319, 0.019964047, 0.107907265, -0.11956691, -0.08666901, 0.024153575, 0.021577714, 0.097142674, -0.07842945, -0.11733083, -0.039142184, 0.092526704, 0.020798206, -0.10814632, -0.055024166, -0.07256985, -0.11810712, -0.027838847, 0.001983447, -0.020133771, -0.045221537, -0.09917305, -0.071791716, -0.0604597, -0.025365893, 0.039853897, -0.03958026, 0.10917604, 0.0094908085, -0.07657397, -0.08018315, -0.079551786, -0.025276253, 0.067989945, -0.06157283, -0.05178608, 0.12143413, 0.08420605, -0.10766386, 0.015241581, -0.10203593, 0.038844865, -0.11464059, -0.06967618, -0.069796875, 0.067617096, 0.114812426, 0.08370979, -0.015726812, -0.053622738, 0.027993625, 0.10725854, -0.024289617, -0.03620297, 0.0046121716, -0.09779674, 0.042112198, 0.018582037, 0.08092107, 0.018673629, -0.08957619, -0.05168204, 0.012984125, 0.036546107, -0.011685549, -0.13038097, 0.10583228, -0.081257455, -0.01717992, 0.11326434, 0.09062452, -0.097727366, -0.098281644, 0.106599465, -0.009278162, 0.041471884, 0.05246329, -0.09510344, 0.09052575, 0.03708859, -0.08087872, 0.102882855, 0.103842735, -0.074415885, 0.1131457, 0.12805198, 0.02337429, -0.017758623, -0.020417497, -0.09502313, 0.048239633, 0.10536859, 0.104013234, 0.11965239, 0.096309155, -0.015570648, 0.0712279, -0.11165897, -0.08866562, -0.034249626, -0.10036373, 0.033165727, 0.02362701, -0.08600338, 0.02764828, -0.0069461465, 0.0075544566, -0.03385687, 0.08352562, 0.022556685, 0.014840074, -0.030126967, 0.038667567, 0.0033007413, -0.05764326, 0.012454867, 0.021562953}, 
{-0.04013349, -0.13166152, -0.020603023, -0.057529718, 0.03908211, 0.04081537, -0.030552626, -0.040632512, -0.011478717, -0.10027758, 0.10540312, -0.07634343, 0.015878974, 0.136647, 0.07097192, 0.0229922, -0.06522046, 0.023734879, -0.00094929023, -0.0755485, -0.02936729, -0.054728672, 0.011298072, 0.019736484, 0.04109681, -0.029307697, 0.06550391, 0.038308457, 0.07795467, 0.07528979, -0.008655138, 0.106595464, 0.080433995, -0.12095692, -0.06148795, -0.102181435, 0.05179842, -0.07649822, -0.04113519, 0.04100087, 0.010358244, 0.011723161, 0.09121287, -0.014008277, -0.056356303, -0.041178595, 0.11926782, -0.013473939, -0.09476719, 0.034379095, -0.041185737, -0.11429974, 0.008072983, -0.082058094, -0.098922305, 0.09372029, -0.014241371, 0.09036468, 0.02614704, 0.098146945, -0.022085294, 0.094280586, -0.011414506, -0.002204178, -0.124105796, -0.032902986, 0.015188888, 0.0022353828, 0.16503616, -0.10934515, 0.031299714, -0.0980501, -0.044622265, -0.113713235, -0.05846286, 0.11248872, -0.12877145, 0.043200046, 0.0008638057, 0.084480144, -0.020956486, 0.09270073, -0.03160544, 0.023473626, -0.070058085, 0.08972149, -0.078008056, 0.036900006, -0.07255187, 0.009790525, 0.04813341, 0.080546506, -0.004481934, -0.03174971, -0.09910951, 0.07187731, -0.027405933, -0.089818165, 0.10618931, -0.059464686, 0.09716749, -0.009910844, 0.11908045, 0.08551607, 0.12003043, -0.048368283, -0.109353304, 0.0030826405, 0.057053335, -0.054905698, -0.07057288, 0.013223499, -0.08920932, -0.06866088, 0.05663733, -0.111697584, 0.014450312, -0.05018732, 0.07714398, 0.03917185, 0.11011971, 0.044170238, 0.0954486, -0.11823128, 0.008782268, -0.0065775784, 0.07385805, -0.03376988}, 
{-0.09514464, -0.0469974, 0.010075543, -0.10088141, 0.0140090715, -0.0968164, 0.07442373, -0.11764009, -0.12364559, 0.046201564, 0.0029721325, 0.009506717, -0.0717086, 0.01898075, 0.07766489, 0.045027714, -0.09800765, -0.009225392, 0.10493036, 0.04451874, 0.06679175, 0.06270942, -0.016118485, -0.115538694, 0.054771144, 0.08184244, 0.10962461, 0.017674074, 0.103883766, 0.08097911, 0.031791613, -0.074220724, -0.113235585, -0.024218211, 0.08282297, 0.03370758, -0.044616748, -0.07237271, 0.09019872, 0.089949325, 0.043861106, -0.010928467, 0.08607452, -0.03235748, 0.041998357, 0.056775823, 0.11376773, 0.025906218, 0.06495176, -0.06740844, 0.1122268, 0.08391553, 0.06742449, 0.027392449, -0.013810627, -0.08398468, -0.09554518, -0.006498035, -0.12343719, -0.06488368, -0.079877466, 0.09619831, 0.10169392, 0.045761615, 0.07987623, 0.08655916, 0.027298838, -0.09965938, 0.13159849, 0.10055472, 0.11044497, 0.1125455, 0.11476293, 0.03556423, 0.06098867, -0.07999838, 0.099693514, 0.058912165, -0.043849304, 0.079329714, -0.012092695, -0.0131397145, -0.06456111, -0.09698281, 0.067904085, 0.050474036, 0.023607219, -0.006394968, 0.053003848, 0.028381005, 0.060059514, 0.14844969, 0.093445115, -0.11673196, -0.10616257, 0.027911473, -0.0033324794, -0.040147163, -0.021785527, 0.023835197, 0.04451397, 0.11425498, 0.07896813, -0.10996239, 0.024519056, -0.07723674, -0.09284844, -0.08985615, -0.025431756, -0.061181966, 0.038777605, 0.071641326, 0.10063241, 0.08699769, 0.10889432, -0.053604458, -0.051122993, 0.053244025, 0.013508153, 0.092770174, -0.005189411, 0.061544478, 0.08256388, 0.07171486, -0.03682884, -0.00026134742, -0.0028144345, 0.051452104}, 
